{"learner":{"attributes":{"scikit_learn":"{\"_estimator_type\": \"regressor\"}"},"feature_names":["비용","CPC","CTR","ROAS_3d_trend","trend_score","channel_naver","channel_meta","channel_google","channel_karrot"],"feature_types":["int","int","float","float","int","int","int","int","int"],"gradient_booster":{"model":{"cats":{"enc":[],"feature_segments":[],"sorted_idx":[]},"gbtree_model_param":{"num_parallel_tree":"1","num_trees":"100"},"iteration_indptr":[0,1,2,3,4,5,6,7,8,9,10,11,12,13,14,15,16,17,18,19,20,21,22,23,24,25,26,27,28,29,30,31,32,33,34,35,36,37,38,39,40,41,42,43,44,45,46,47,48,49,50,51,52,53,54,55,56,57,58,59,60,61,62,63,64,65,66,67,68,69,70,71,72,73,74,75,76,77,78,79,80,81,82,83,84,85,86,87,88,89,90,91,92,93,94,95,96,97,98,99,100],"tree_info":[0,0,0,0,0,0,0,0,0,0,0,0,0,0,0,0,0,0,0,0,0,0,0,0,0,0,0,0,0,0,0,0,0,0,0,0,0,0,0,0,0,0,0,0,0,0,0,0,0,0,0,0,0,0,0,0,0,0,0,0,0,0,0,0,0,0,0,0,0,0,0,0,0,0,0,0,0,0,0,0,0,0,0,0,0,0,0,0,0,0,0,0,0,0,0,0,0,0,0,0],"trees":[{"base_weights":[-1.0407707E-5,-9.475967E1,8.89749E1,-1.4443555E2,-4.8019253E1,4.9436783E1,1.49507E2,-1.7487735E2,-1.1368644E2,-7.15909E1,-2.9595802E1,3.0746723E1,8.401573E1,1.3305652E2,1.9312027E2,-7.4836273E0,-9.550162E0,-5.900509E0,-3.4003117E0,-3.8356235E0,-1.8005705E0,-2.2858906E0,-7.904137E-1,2.709926E-1,2.0155118E0,3.41334E0,4.75251E0,4.657529E0,6.9537315E0,9.909941E0,6.9086776E0],"categories":[],"categories_nodes":[],"categories_segments":[],"categories_sizes":[],"default_left":[0,0,0,0,0,0,0,0,0,0,0,0,0,0,0,0,0,0,0,0,0,0,0,0,0,0,0,0,0,0,0],"id":0,"left_children":[1,3,5,7,9,11,13,15,17,19,21,23,25,27,29,-1,-1,-1,-1,-1,-1,-1,-1,-1,-1,-1,-1,-1,-1,-1,-1],"loss_changes":[3.3741788E7,4.49285E6,4.932433E6,8.59078E5,4.3215225E5,8.0527025E5,5.59032E5,1.62443E5,8.48045E4,7.7051E4,1.2442244E5,1.9670131E5,6.962725E4,1.29939E5,3.4284E4,0E0,0E0,0E0,0E0,0E0,0E0,0E0,0E0,0E0,0E0,0E0,0E0,0E0,0E0,0E0,0E0],"parents":[2147483647,0,0,1,1,2,2,3,3,4,4,5,5,6,6,7,7,8,8,9,9,10,10,11,11,12,12,13,13,14,14],"right_children":[2,4,6,8,10,12,14,16,18,20,22,24,26,28,30,-1,-1,-1,-1,-1,-1,-1,-1,-1,-1,-1,-1,-1,-1,-1,-1],"split_conditions":[1.8195864E0,1.6409504E0,2.0376544E0,1.5434502E0,1.7197489E0,1.9592826E0,2.197336E0,1E0,5.9E1,6.5E1,5.7E1,6.4E1,7.8E1,7.8E1,1E0,-7.4836273E0,-9.550162E0,-5.900509E0,-3.4003117E0,-3.8356235E0,-1.8005705E0,-2.2858906E0,-7.904137E-1,2.709926E-1,2.0155118E0,3.41334E0,4.75251E0,4.657529E0,6.9537315E0,9.909941E0,6.9086776E0],"split_indices":[2,2,2,2,2,2,2,6,4,4,4,4,4,4,7,0,0,0,0,0,0,0,0,0,0,0,0,0,0,0,0],"split_type":[0,0,0,0,0,0,0,0,0,0,0,0,0,0,0,0,0,0,0,0,0,0,0,0,0,0,0,0,0,0,0],"sum_hessian":[4E3,1.937E3,2.063E3,9.38E2,9.99E2,1.249E3,8.14E2,4.69E2,4.69E2,4.37E2,5.62E2,8.12E2,4.37E2,5.94E2,2.2E2,1.87E2,2.82E2,4.27E2,4.2E1,3.81E2,5.6E1,2.58E2,3.04E2,2.23E2,5.89E2,1.83E2,2.54E2,8E1,5.14E2,1.99E2,2.1E1],"tree_param":{"num_deleted":"0","num_feature":"9","num_nodes":"31","size_leaf_vector":"1"}},{"base_weights":[9.5160917E-4,-9.0039764E1,8.454499E1,-1.372418E2,-4.5627003E1,4.5782207E1,1.402983E2,-1.6519762E2,-1.0701325E2,-7.3032616E1,-3.1208189E1,2.2612577E1,7.0122955E1,1.20272316E2,1.7367456E2,-7.0889826E0,-9.033507E0,-5.558563E0,-3.2342508E0,-3.8965523E0,-1.4479557E0,-3.1271665E0,-1.2499183E0,-6.5729254E-1,1.4477752E0,2.6305768E0,4.067962E0,4.3786926E0,6.3321924E0,7.1705613E0,9.26644E0],"categories":[],"categories_nodes":[],"categories_segments":[],"categories_sizes":[],"default_left":[0,0,0,0,0,0,0,0,0,0,0,0,0,0,0,0,0,0,0,0,0,0,0,0,0,0,0,0,0,0,0],"id":1,"left_children":[1,3,5,7,9,11,13,15,17,19,21,23,25,27,29,-1,-1,-1,-1,-1,-1,-1,-1,-1,-1,-1,-1,-1,-1,-1,-1],"loss_changes":[3.0464848E7,4.05651E6,4.454197E6,7.75836E5,3.9287725E5,6.8588925E5,5.44573E5,1.5048E5,7.2713E4,7.200975E4,1.26279375E5,1.4236569E5,1.1259675E5,9.97455E4,8.4521E4,0E0,0E0,0E0,0E0,0E0,0E0,0E0,0E0,0E0,0E0,0E0,0E0,0E0,0E0,0E0,0E0],"parents":[2147483647,0,0,1,1,2,2,3,3,4,4,5,5,6,6,7,7,8,8,9,9,10,10,11,11,12,12,13,13,14,14],"right_children":[2,4,6,8,10,12,14,16,18,20,22,24,26,28,30,-1,-1,-1,-1,-1,-1,-1,-1,-1,-1,-1,-1,-1,-1,-1,-1],"split_conditions":[1.8195864E0,1.6409504E0,2.0311537E0,1.5458766E0,1.7046975E0,1.9295119E0,2.1606293E0,1E0,5.9E1,6.4E1,4.7E1,5.9E1,1.9673853E0,7.8E1,9E1,-7.0889826E0,-9.033507E0,-5.558563E0,-3.2342508E0,-3.8965523E0,-1.4479557E0,-3.1271665E0,-1.2499183E0,-6.5729254E-1,1.4477752E0,2.6305768E0,4.067962E0,4.3786926E0,6.3321924E0,7.1705613E0,9.26644E0],"split_indices":[2,2,2,2,2,2,2,6,4,4,4,4,2,4,4,0,0,0,0,0,0,0,0,0,0,0,0,0,0,0,0],"split_type":[0,0,0,0,0,0,0,0,0,0,0,0,0,0,0,0,0,0,0,0,0,0,0,0,0,0,0,0,0,0,0],"sum_hessian":[4E3,1.937E3,2.063E3,9.38E2,9.99E2,1.218E3,8.45E2,4.85E2,4.53E2,3.43E2,6.56E2,6.25E2,5.93E2,5.31E2,3.14E2,1.97E2,2.88E2,4.11E2,4.2E1,3.08E2,3.5E1,1.07E2,5.49E2,9.4E1,5.31E2,2.34E2,3.59E2,8.9E1,4.42E2,9.1E1,2.23E2],"tree_param":{"num_deleted":"0","num_feature":"9","num_nodes":"31","size_leaf_vector":"1"}},{"base_weights":[9.0129446E-4,-8.760175E1,7.847395E1,-1.3040625E2,-4.5334145E1,3.437518E1,1.244605E2,-1.579291E2,-1.0260595E2,-6.939653E1,-3.1690224E1,1.3530493E1,5.3526733E1,9.853702E1,1.5518335E2,-6.7588716E0,-8.624261E0,-5.602649E0,-4.1711535E0,-3.7023556E0,-1.3775684E0,-2.2451243E0,-9.4634503E-1,-3.4800884E-1,1.1649722E0,2.140269E0,3.3918579E0,3.3586686E0,5.2064166E0,7.1204286E0,9.174453E0],"categories":[],"categories_nodes":[],"categories_segments":[],"categories_sizes":[],"default_left":[0,0,0,0,0,0,0,0,0,0,0,0,0,0,0,0,0,0,0,0,0,0,0,0,0,0,0,0,0,0,0],"id":2,"left_children":[1,3,5,7,9,11,13,15,17,19,21,23,25,27,29,-1,-1,-1,-1,-1,-1,-1,-1,-1,-1,-1,-1,-1,-1,-1,-1],"loss_changes":[2.7511538E7,3.415368E6,4.276726E6,7.02264E5,3.1067588E5,4.3002138E5,8.07434E5,1.32338E5,7.5826E4,6.490375E4,1.02015875E5,1.0385146E5,8.332225E4,9.1735E4,1.44183E5,0E0,0E0,0E0,0E0,0E0,0E0,0E0,0E0,0E0,0E0,0E0,0E0,0E0,0E0,0E0,0E0],"parents":[2147483647,0,0,1,1,2,2,3,3,4,4,5,5,6,6,7,7,8,8,9,9,10,10,11,11,12,12,13,13,14,14],"right_children":[2,4,6,8,10,12,14,16,18,20,22,24,26,28,30,-1,-1,-1,-1,-1,-1,-1,-1,-1,-1,-1,-1,-1,-1,-1,-1],"split_conditions":[1.8095776E0,1.6409504E0,1.9981529E0,1.5434502E0,1.7046975E0,1.9044656E0,2.1172824E0,1E0,4.9E1,6.4E1,5.7E1,6.3E1,7.8E1,7.5E1,2.228726E0,-6.7588716E0,-8.624261E0,-5.602649E0,-4.1711535E0,-3.7023556E0,-1.3775684E0,-2.2451243E0,-9.4634503E-1,-3.4800884E-1,1.1649722E0,2.140269E0,3.3918579E0,3.3586686E0,5.2064166E0,7.1204286E0,9.174453E0],"split_indices":[2,2,2,2,2,2,2,6,4,4,4,4,4,4,2,0,0,0,0,0,0,0,0,0,0,0,0,0,0,0,0],"split_type":[0,0,0,0,0,0,0,0,0,0,0,0,0,0,0,0,0,0,0,0,0,0,0,0,0,0,0,0,0,0,0],"sum_hessian":[4E3,1.89E3,2.11E3,9.38E2,9.52E2,1.078E3,1.032E3,4.69E2,4.69E2,3.43E2,6.09E2,5.17E2,5.61E2,5.62E2,4.7E2,1.87E2,2.82E2,3.11E2,1.58E2,3.08E2,3.5E1,2.98E2,3.11E2,1.67E2,3.5E2,3.23E2,2.38E2,8.7E1,4.75E2,3.28E2,1.42E2],"tree_param":{"num_deleted":"0","num_feature":"9","num_nodes":"31","size_leaf_vector":"1"}},{"base_weights":[3.0533978E-4,-8.455685E1,7.342528E1,-1.27524895E2,-4.755676E1,3.1633131E1,1.1826154E2,-1.5006535E2,-1.0010407E2,-6.942434E1,-3.1498823E1,1.1893106E1,5.0860252E1,9.3625374E1,1.4745879E2,-6.422725E0,-8.1945715E0,-5.494751E0,-4.199306E0,-3.6786258E0,-1.2080171E0,-2.8773906E0,-1.2837157E0,-1.0937513E0,8.682551E-1,1.7285016E0,2.9710813E0,3.1926432E0,4.9466424E0,6.6147194E0,8.459492E0],"categories":[],"categories_nodes":[],"categories_segments":[],"categories_sizes":[],"default_left":[0,0,0,0,0,0,0,0,0,0,0,0,0,0,0,0,0,0,0,0,0,0,0,0,0,0,0,0,0,0,0],"id":3,"left_children":[1,3,5,7,9,11,13,15,17,19,21,23,25,27,29,-1,-1,-1,-1,-1,-1,-1,-1,-1,-1,-1,-1,-1,-1,-1,-1],"loss_changes":[2.4846844E7,2.951004E6,4.009947E6,5.16525E5,3.493125E5,4.2068888E5,7.29239E5,1.1938E5,5.247425E4,7.7646375E4,8.636981E4,1.0182353E5,7.6326125E4,8.2647E4,1.3283E5,0E0,0E0,0E0,0E0,0E0,0E0,0E0,0E0,0E0,0E0,0E0,0E0,0E0,0E0,0E0,0E0],"parents":[2147483647,0,0,1,1,2,2,3,3,4,4,5,5,6,6,7,7,8,8,9,9,10,10,11,11,12,12,13,13,14,14],"right_children":[2,4,6,8,10,12,14,16,18,20,22,24,26,28,30,-1,-1,-1,-1,-1,-1,-1,-1,-1,-1,-1,-1,-1,-1,-1,-1],"split_conditions":[1.805345E0,1.6261679E0,1.9981529E0,1.5434502E0,1.7046975E0,1.9044656E0,2.1172824E0,1E0,4.7E1,6.5E1,4.7E1,5.6E1,7.1E1,7.5E1,2.210029E0,-6.422725E0,-8.1945715E0,-5.494751E0,-4.199306E0,-3.6786258E0,-1.2080171E0,-2.8773906E0,-1.2837157E0,-1.0937513E0,8.682551E-1,1.7285016E0,2.9710813E0,3.1926432E0,4.9466424E0,6.6147194E0,8.459492E0],"split_indices":[2,2,2,2,2,2,2,6,4,4,4,4,4,4,2,0,0,0,0,0,0,0,0,0,0,0,0,0,0,0,0],"split_type":[0,0,0,0,0,0,0,0,0,0,0,0,0,0,0,0,0,0,0,0,0,0,0,0,0,0,0,0,0,0,0],"sum_hessian":[4E3,1.859E3,2.141E3,8.59E2,1E3,1.109E3,1.032E3,4.69E2,3.9E2,4.22E2,5.78E2,5.48E2,5.61E2,5.62E2,4.7E2,1.87E2,2.82E2,2.39E2,1.51E2,3.86E2,3.6E1,1.04E2,4.74E2,7.6E1,4.72E2,1.95E2,3.66E2,8.7E1,4.75E2,2.81E2,1.89E2],"tree_param":{"num_deleted":"0","num_feature":"9","num_nodes":"31","size_leaf_vector":"1"}},{"base_weights":[-1.1284907E-3,-7.7285034E1,7.2564865E1,-1.1779984E2,-3.9164337E1,4.0159573E1,1.22177185E2,-1.4179137E2,-9.185782E1,-5.365076E1,-1.7925764E1,1.9258139E1,6.1030197E1,1.0860229E2,1.5817216E2,-8.409568E0,-6.525715E0,-4.744669E0,-2.2049463E0,-3.2040517E0,-1.9265698E0,-1.3798817E0,-2.4078722E-1,1.7882435E-2,1.4399196E0,2.2404497E0,3.5311716E0,4.5749397E0,5.9913836E0,8.146704E0,5.3846226E0],"categories":[],"categories_nodes":[],"categories_segments":[],"categories_sizes":[],"default_left":[0,0,0,0,0,0,0,0,0,0,0,0,0,0,0,0,0,0,0,0,0,0,0,0,0,0,0,0,0,0,0],"id":4,"left_children":[1,3,5,7,9,11,13,15,17,19,21,23,25,27,29,-1,-1,-1,-1,-1,-1,-1,-1,-1,-1,-1,-1,-1,-1,-1,-1],"loss_changes":[2.2443948E7,2.988535E6,3.31339E6,5.71399E5,3.0670925E5,5.441071E5,3.81054E5,1.22738E5,6.1634E4,9.1204E4,5.147404E4,1.1286719E5,9.4094E4,1.032715E5,3.5577E4,0E0,0E0,0E0,0E0,0E0,0E0,0E0,0E0,0E0,0E0,0E0,0E0,0E0,0E0,0E0,0E0],"parents":[2147483647,0,0,1,1,2,2,3,3,4,4,5,5,6,6,7,7,8,8,9,9,10,10,11,11,12,12,13,13,14,14],"right_children":[2,4,6,8,10,12,14,16,18,20,22,24,26,28,30,-1,-1,-1,-1,-1,-1,-1,-1,-1,-1,-1,-1,-1,-1,-1,-1],"split_conditions":[1.8195864E0,1.6409504E0,2.0376544E0,1.5458766E0,1.7502176E0,1.9295119E0,2.197336E0,1.4259683E0,6.1E1,5.4E1,6.1E1,6.5E1,1.9673853E0,8.6E1,1E0,-8.409568E0,-6.525715E0,-4.744669E0,-2.2049463E0,-3.2040517E0,-1.9265698E0,-1.3798817E0,-2.4078722E-1,1.7882435E-2,1.4399196E0,2.2404497E0,3.5311716E0,4.5749397E0,5.9913836E0,8.146704E0,5.3846226E0],"split_indices":[2,2,2,2,2,2,2,2,4,4,4,4,2,4,7,0,0,0,0,0,0,0,0,0,0,0,0,0,0,0,0],"split_type":[0,0,0,0,0,0,0,0,0,0,0,0,0,0,0,0,0,0,0,0,0,0,0,0,0,0,0,0,0,0,0],"sum_hessian":[4E3,1.937E3,2.063E3,9.38E2,9.99E2,1.249E3,8.14E2,4.85E2,4.53E2,5.93E2,4.06E2,6.25E2,6.24E2,5.94E2,2.2E2,1.41E2,3.44E2,4.25E2,2.8E1,3.49E2,2.44E2,2.33E2,1.73E2,2.1E2,4.15E2,2.34E2,3.9E2,2.39E2,3.55E2,1.99E2,2.1E1],"tree_param":{"num_deleted":"0","num_feature":"9","num_nodes":"31","size_leaf_vector":"1"}},{"base_weights":[-3.9899768E-4,-6.741594E1,7.518289E1,-1.0764115E2,-2.769492E1,4.41802E1,1.1609789E2,-1.3473251E2,-8.406381E1,-4.5275734E1,-1.006205E1,2.9803858E1,6.5118675E1,1.0318992E2,1.5032478E2,-7.9920497E0,-6.2003746E0,-4.374171E0,-2.3614511E0,-3.119828E0,-1.8531599E0,-9.475832E-1,4.09053E-1,9.093749E-1,2.0049353E0,2.5951347E0,3.7199776E0,4.3471456E0,5.692655E0,7.7414055E0,5.1276298E0],"categories":[],"categories_nodes":[],"categories_segments":[],"categories_sizes":[],"default_left":[0,0,0,0,0,0,0,0,0,0,0,0,0,0,0,0,0,0,0,0,0,0,0,0,0,0,0,0,0,0,0],"id":5,"left_children":[1,3,5,7,9,11,13,15,17,19,21,23,25,27,29,-1,-1,-1,-1,-1,-1,-1,-1,-1,-1,-1,-1,-1,-1,-1,-1],"loss_changes":[2.0284226E7,3.368349E6,2.394825E6,6.58076E5,3.2907462E5,3.2255725E5,3.44555E5,1.11053E5,6.6784E4,7.24895E4,8.643172E4,7.592706E4,4.986175E4,9.3182E4,3.16665E4,0E0,0E0,0E0,0E0,0E0,0E0,0E0,0E0,0E0,0E0,0E0,0E0,0E0,0E0,0E0,0E0],"parents":[2147483647,0,0,1,1,2,2,3,3,4,4,5,5,6,6,7,7,8,8,9,9,10,10,11,11,12,12,13,13,14,14],"right_children":[2,4,6,8,10,12,14,16,18,20,22,24,26,28,30,-1,-1,-1,-1,-1,-1,-1,-1,-1,-1,-1,-1,-1,-1,-1,-1],"split_conditions":[1.8480364E0,1.6602216E0,2.0376544E0,1.5458766E0,1.7566394E0,1.9592826E0,2.197336E0,1.4259683E0,6E1,4.7E1,6.7E1,7.1E1,7.8E1,8.6E1,1E0,-7.9920497E0,-6.2003746E0,-4.374171E0,-2.3614511E0,-3.119828E0,-1.8531599E0,-9.475832E-1,4.09053E-1,9.093749E-1,2.0049353E0,2.5951347E0,3.7199776E0,4.3471456E0,5.692655E0,7.7414055E0,5.1276298E0],"split_indices":[2,2,2,2,2,2,2,2,4,4,4,4,4,4,7,0,0,0,0,0,0,0,0,0,0,0,0,0,0,0,0],"split_type":[0,0,0,0,0,0,0,0,0,0,0,0,0,0,0,0,0,0,0,0,0,0,0,0,0,0,0,0,0,0,0],"sum_hessian":[4E3,2.109E3,1.891E3,1.047E3,1.062E3,1.077E3,8.14E2,4.85E2,5.62E2,5.31E2,5.31E2,6.4E2,4.37E2,5.94E2,2.2E2,1.41E2,3.44E2,5.13E2,4.9E1,1.7E2,3.61E2,3.57E2,1.74E2,3.02E2,3.38E2,1.83E2,2.54E2,2.39E2,3.55E2,1.99E2,2.1E1],"tree_param":{"num_deleted":"0","num_feature":"9","num_nodes":"31","size_leaf_vector":"1"}},{"base_weights":[1.04611E-3,-7.2605286E1,6.3048557E1,-1.2091294E2,-4.8060184E1,2.7142054E1,1.015705E2,-1.3963338E2,-1.0516062E2,-6.665049E1,-2.688248E1,1.0007958E1,4.3831512E1,8.001918E1,1.27115776E2,-5.527051E0,-7.5081725E0,-5.534186E0,-3.8861299E0,-3.5087643E0,-1.1695793E0,-2.483847E0,-1.0893556E0,-1.7480277E0,6.6629595E-1,1.7304537E0,2.8075254E0,2.6811583E0,4.236551E0,5.3936934E0,7.004317E0],"categories":[],"categories_nodes":[],"categories_segments":[],"categories_sizes":[],"default_left":[0,0,0,0,0,0,0,0,0,0,0,0,0,0,0,0,0,0,0,0,0,0,0,0,0,0,0,0,0,0,0],"id":6,"left_children":[1,3,5,7,9,11,13,15,17,19,21,23,25,27,29,-1,-1,-1,-1,-1,-1,-1,-1,-1,-1,-1,-1,-1,-1,-1,-1],"loss_changes":[1.8319748E7,2.199622E6,2.960033E6,1.69918E5,4.8442775E5,3.169755E5,5.5853E5,7.00965E4,4.3528E4,9.853725E4,6.616631E4,8.237872E4,6.1906125E4,6.5479E4,1.024395E5,0E0,0E0,0E0,0E0,0E0,0E0,0E0,0E0,0E0,0E0,0E0,0E0,0E0,0E0,0E0,0E0],"parents":[2147483647,0,0,1,1,2,2,3,3,4,4,5,5,6,6,7,7,8,8,9,9,10,10,11,11,12,12,13,13,14,14],"right_children":[2,4,6,8,10,12,14,16,18,20,22,24,26,28,30,-1,-1,-1,-1,-1,-1,-1,-1,-1,-1,-1,-1,-1,-1,-1,-1],"split_conditions":[1.805345E0,1.5789342E0,1.9981529E0,1.487201E0,1.7046975E0,1.9044656E0,2.1172824E0,1E0,4.9E1,6.4E1,4.7E1,5.1E1,7.8E1,7.5E1,1E0,-5.527051E0,-7.5081725E0,-5.534186E0,-3.8861299E0,-3.5087643E0,-1.1695793E0,-2.483847E0,-1.0893556E0,-1.7480277E0,6.6629595E-1,1.7304537E0,2.8075254E0,2.6811583E0,4.236551E0,5.3936934E0,7.004317E0],"split_indices":[2,2,2,2,2,2,2,6,4,4,4,4,4,4,5,0,0,0,0,0,0,0,0,0,0,0,0,0,0,0,0],"split_type":[0,0,0,0,0,0,0,0,0,0,0,0,0,0,0,0,0,0,0,0,0,0,0,0,0,0,0,0,0,0,0],"sum_hessian":[4E3,1.859E3,2.141E3,6.25E2,1.234E3,1.109E3,1.032E3,2.82E2,3.43E2,6.56E2,5.78E2,5.48E2,5.61E2,5.62E2,4.7E2,7.8E1,2.04E2,2.83E2,6E1,6.06E2,5E1,1.04E2,4.74E2,3.7E1,5.11E2,3.23E2,2.38E2,8.7E1,4.75E2,1.93E2,2.77E2],"tree_param":{"num_deleted":"0","num_feature":"9","num_nodes":"31","size_leaf_vector":"1"}},{"base_weights":[-9.893996E-4,-6.0917854E1,6.793484E1,-9.732102E1,-2.4971064E1,4.3460354E1,1.1050711E2,-1.2176303E2,-7.604902E1,-4.080513E1,-9.09006E0,2.8019924E1,6.3963367E1,9.814962E1,1.3628772E2,-5.1515837E0,-6.708748E0,-3.9588048E0,-2.1190848E0,-2.71572E0,-1.608496E0,-8.654133E-1,3.8869926E-1,9.5867854E-1,2.0011384E0,2.207309E0,3.4896164E0,4.3382525E0,5.540075E0,7.021095E0,4.6254754E0],"categories":[],"categories_nodes":[],"categories_segments":[],"categories_sizes":[],"default_left":[0,0,0,0,0,0,0,0,0,0,0,0,0,0,0,0,0,0,0,0,0,0,0,0,0,0,0,0,0,0,0],"id":7,"left_children":[1,3,5,7,9,11,13,15,17,19,21,23,25,27,29,-1,-1,-1,-1,-1,-1,-1,-1,-1,-1,-1,-1,-1,-1,-1,-1],"loss_changes":[1.6562027E7,2.758667E6,1.966537E6,5.35628E5,2.66932E5,3.79048E5,2.06446E5,9.91665E4,5.5917E4,6.0313438E4,7.386561E4,7.2285375E4,5.6524E4,5.8083E4,2.700775E4,0E0,0E0,0E0,0E0,0E0,0E0,0E0,0E0,0E0,0E0,0E0,0E0,0E0,0E0,0E0,0E0],"parents":[2147483647,0,0,1,1,2,2,3,3,4,4,5,5,6,6,7,7,8,8,9,9,10,10,11,11,12,12,13,13,14,14],"right_children":[2,4,6,8,10,12,14,16,18,20,22,24,26,28,30,-1,-1,-1,-1,-1,-1,-1,-1,-1,-1,-1,-1,-1,-1,-1,-1],"split_conditions":[1.8480364E0,1.6602216E0,2.0669296E0,1.5458766E0,1.7566394E0,1.9673853E0,2.197336E0,1E0,6E1,4.9E1,6.7E1,7.5E1,7.4E1,9E1,1E0,-5.1515837E0,-6.708748E0,-3.9588048E0,-2.1190848E0,-2.71572E0,-1.608496E0,-8.654133E-1,3.8869926E-1,9.5867854E-1,2.0011384E0,2.207309E0,3.4896164E0,4.3382525E0,5.540075E0,7.021095E0,4.6254754E0],"split_indices":[2,2,2,2,2,2,2,6,4,4,4,4,4,4,7,0,0,0,0,0,0,0,0,0,0,0,0,0,0,0,0],"split_type":[0,0,0,0,0,0,0,0,0,0,0,0,0,0,0,0,0,0,0,0,0,0,0,0,0,0,0,0,0,0,0],"sum_hessian":[4E3,2.109E3,1.891E3,1.047E3,1.062E3,1.202E3,6.89E2,4.85E2,5.62E2,5.31E2,5.31E2,6.87E2,5.15E2,4.69E2,2.2E2,1.97E2,2.88E2,5.13E2,4.9E1,2.05E2,3.26E2,3.57E2,1.74E2,3.97E2,2.9E2,1.19E2,3.96E2,2.51E2,2.18E2,1.99E2,2.1E1],"tree_param":{"num_deleted":"0","num_feature":"9","num_nodes":"31","size_leaf_vector":"1"}},{"base_weights":[9.1951655E-4,-5.745024E1,6.5042854E1,-9.6303856E1,-2.6665915E1,4.177315E1,1.05012955E2,-1.1641922E2,-7.598359E1,-4.229121E1,-8.306719E0,2.7141111E1,6.0776234E1,9.326315E1,1.2952603E2,-6.9243064E0,-5.327052E0,-4.24427E0,-3.0842874E0,-2.342189E0,-8.446938E-1,-9.550719E-1,2.440805E-1,9.4316214E-1,1.9172223E0,2.0978634E0,3.3155751E0,4.122201E0,5.264336E0,5.245331E0,6.8429313E0],"categories":[],"categories_nodes":[],"categories_segments":[],"categories_sizes":[],"default_left":[0,0,0,0,0,0,0,0,0,0,0,0,0,0,0,0,0,0,0,0,0,0,0,0,0,0,0,0,0,0,0],"id":8,"left_children":[1,3,5,7,9,11,13,15,17,19,21,23,25,27,29,-1,-1,-1,-1,-1,-1,-1,-1,-1,-1,-1,-1,-1,-1,-1,-1],"loss_changes":[1.4954412E7,2.5391075E6,1.7413965E6,3.74969E5,3.4016094E5,3.286785E5,1.866565E5,8.76965E4,5.458375E4,7.3322875E4,7.796652E4,6.169053E4,5.0968375E4,5.24595E4,2.55385E4,0E0,0E0,0E0,0E0,0E0,0E0,0E0,0E0,0E0,0E0,0E0,0E0,0E0,0E0,0E0,0E0],"parents":[2147483647,0,0,1,1,2,2,3,3,4,4,5,5,6,6,7,7,8,8,9,9,10,10,11,11,12,12,13,13,14,14],"right_children":[2,4,6,8,10,12,14,16,18,20,22,24,26,28,30,-1,-1,-1,-1,-1,-1,-1,-1,-1,-1,-1,-1,-1,-1,-1,-1],"split_conditions":[1.8507315E0,1.6409504E0,2.0669296E0,1.5434502E0,1.7566394E0,1.9673853E0,2.197336E0,1.4259683E0,4.7E1,6.5E1,6.3E1,7.5E1,7.4E1,9E1,1E0,-6.9243064E0,-5.327052E0,-4.24427E0,-3.0842874E0,-2.342189E0,-8.446938E-1,-9.550719E-1,2.440805E-1,9.4316214E-1,1.9172223E0,2.0978634E0,3.3155751E0,4.122201E0,5.264336E0,5.245331E0,6.8429313E0],"split_indices":[2,2,2,2,2,2,2,2,4,4,4,4,4,4,5,0,0,0,0,0,0,0,0,0,0,0,0,0,0,0,0],"split_type":[0,0,0,0,0,0,0,0,0,0,0,0,0,0,0,0,0,0,0,0,0,0,0,0,0,0,0,0,0,0,0],"sum_hessian":[4E3,2.124E3,1.876E3,9.38E2,1.186E3,1.187E3,6.89E2,4.69E2,4.69E2,6.4E2,5.46E2,6.72E2,5.15E2,4.69E2,2.2E2,1.41E2,3.28E2,2.86E2,1.83E2,5.42E2,9.8E1,3E2,2.46E2,3.88E2,2.84E2,1.19E2,3.96E2,2.51E2,2.18E2,5.4E1,1.66E2],"tree_param":{"num_deleted":"0","num_feature":"9","num_nodes":"31","size_leaf_vector":"1"}},{"base_weights":[2.4394079E-3,-6.2360897E1,5.4155476E1,-1.0399499E2,-4.120681E1,2.8330574E1,9.368354E1,-1.3161058E2,-9.5695175E1,-5.7226967E1,-2.2957329E1,9.174426E0,4.371733E1,7.990202E1,1.166616E2,-4.7196107E0,-6.9961963E0,-5.023154E0,-3.27468E0,-3.0176759E0,-9.4464123E-1,-1.3549775E0,-7.508172E-3,-9.571971E-1,6.9094336E-1,1.6713408E0,2.6943204E0,2.7790656E0,4.233133E0,4.547455E0,6.335064E0],"categories":[],"categories_nodes":[],"categories_segments":[],"categories_sizes":[],"default_left":[0,0,0,0,0,0,0,0,0,0,0,0,0,0,0,0,0,0,0,0,0,0,0,0,0,0,0,0,0,0,0],"id":9,"left_children":[1,3,5,7,9,11,13,15,17,19,21,23,25,27,29,-1,-1,-1,-1,-1,-1,-1,-1,-1,-1,-1,-1,-1,-1,-1,-1],"loss_changes":[1.3515412E7,1.633875E6,2.1839175E6,1.30887E5,3.5975012E5,3.8189106E5,2.585835E5,3.072825E4,6.32595E4,7.76035E4,5.4695375E4,7.641636E4,7.34385E4,5.68905E4,6.97925E4,0E0,0E0,0E0,0E0,0E0,0E0,0E0,0E0,0E0,0E0,0E0,0E0,0E0,0E0,0E0,0E0],"parents":[2147483647,0,0,1,1,2,2,3,3,4,4,5,5,6,6,7,7,8,8,9,9,10,10,11,11,12,12,13,13,14,14],"right_children":[2,4,6,8,10,12,14,16,18,20,22,24,26,28,30,-1,-1,-1,-1,-1,-1,-1,-1,-1,-1,-1,-1,-1,-1,-1,-1],"split_conditions":[1.805345E0,1.5789342E0,2.0311537E0,1.4259683E0,1.7046975E0,1.9092512E0,2.1606293E0,1E0,4.9E1,6.4E1,6.9E1,5.6E1,1.9673853E0,7.8E1,9E1,-4.7196107E0,-6.9961963E0,-5.023154E0,-3.27468E0,-3.0176759E0,-9.4464123E-1,-1.3549775E0,-7.508172E-3,-9.571971E-1,6.9094336E-1,1.6713408E0,2.6943204E0,2.7790656E0,4.233133E0,4.547455E0,6.335064E0],"split_indices":[2,2,2,2,2,2,2,6,4,4,4,4,2,4,4,0,0,0,0,0,0,0,0,0,0,0,0,0,0,0,0],"split_type":[0,0,0,0,0,0,0,0,0,0,0,0,0,0,0,0,0,0,0,0,0,0,0,0,0,0,0,0,0,0,0],"sum_hessian":[4E3,1.859E3,2.141E3,6.25E2,1.234E3,1.296E3,8.45E2,1.41E2,4.84E2,6.56E2,5.78E2,5.78E2,7.18E2,5.31E2,3.14E2,2.8E1,1.13E2,4.16E2,6.8E1,6.06E2,5E1,4.89E2,8.9E1,8.1E1,4.97E2,3.59E2,3.59E2,8.9E1,4.42E2,9.1E1,2.23E2],"tree_param":{"num_deleted":"0","num_feature":"9","num_nodes":"31","size_leaf_vector":"1"}},{"base_weights":[1.4854837E-3,-5.230981E1,5.834019E1,-8.3677505E1,-2.1335537E1,3.87567E1,9.778893E1,-1.0463083E2,-6.544128E1,-3.4818775E1,-7.812195E0,2.4180847E1,5.60096E1,8.434664E1,1.1457841E2,-4.373995E0,-5.8009624E0,-3.427555E0,-1.9114046E0,-2.3967636E0,-1.3755554E0,-7.4699354E-1,3.4068176E-1,-3.8510177E-1,1.3536562E0,1.8435618E0,3.0519035E0,3.1234767E0,4.7839713E0,4.7855725E0,7.2196536E0],"categories":[],"categories_nodes":[],"categories_segments":[],"categories_sizes":[],"default_left":[0,0,0,0,0,0,0,0,0,0,0,0,0,0,0,0,0,0,0,0,0,0,0,0,0,0,0,0,0,0,0],"id":10,"left_children":[1,3,5,7,9,11,13,15,17,19,21,23,25,27,29,-1,-1,-1,-1,-1,-1,-1,-1,-1,-1,-1,-1,-1,-1,-1,-1],"loss_changes":[1.2213196E7,2.0482725E6,1.457863E6,3.936035E5,1.9355375E5,3.17014E5,1.31843E5,8.4777E4,4.5025E4,4.9674E4,5.556183E4,6.3651812E4,5.34705E4,8.12935E4,1.4143325E5,0E0,0E0,0E0,0E0,0E0,0E0,0E0,0E0,0E0,0E0,0E0,0E0,0E0,0E0,0E0,0E0],"parents":[2147483647,0,0,1,1,2,2,3,3,4,4,5,5,6,6,7,7,8,8,9,9,10,10,11,11,12,12,13,13,14,14],"right_children":[2,4,6,8,10,12,14,16,18,20,22,24,26,28,30,-1,-1,-1,-1,-1,-1,-1,-1,-1,-1,-1,-1,-1,-1,-1,-1],"split_conditions":[1.8480364E0,1.6602216E0,2.081129E0,1.5458766E0,1.7566394E0,1.9673853E0,9.3E1,1E0,5.9E1,4.8E1,6.7E1,5.8E1,7.4E1,1E0,1E0,-4.373995E0,-5.8009624E0,-3.427555E0,-1.9114046E0,-2.3967636E0,-1.3755554E0,-7.4699354E-1,3.4068176E-1,-3.8510177E-1,1.3536562E0,1.8435618E0,3.0519035E0,3.1234767E0,4.7839713E0,4.7855725E0,7.2196536E0],"split_indices":[2,2,2,2,2,2,4,6,4,4,4,4,4,5,5,0,0,0,0,0,0,0,0,0,0,0,0,0,0,0,0],"split_type":[0,0,0,0,0,0,0,0,0,0,0,0,0,0,0,0,0,0,0,0,0,0,0,0,0,0,0,0,0,0,0],"sum_hessian":[4E3,2.109E3,1.891E3,1.047E3,1.062E3,1.265E3,6.26E2,4.85E2,5.62E2,5.31E2,5.31E2,6.87E2,5.78E2,3.51E2,2.75E2,1.97E2,2.88E2,5.03E2,5.9E1,1.88E2,3.43E2,3.57E2,1.74E2,5.7E1,6.3E2,1.22E2,4.56E2,1.22E2,2.29E2,1.71E2,1.04E2],"tree_param":{"num_deleted":"0","num_feature":"9","num_nodes":"31","size_leaf_vector":"1"}},{"base_weights":[2.9267357E-3,-5.3346333E1,5.167272E1,-8.533261E1,-2.8516115E1,2.8840242E1,8.575999E1,-1.083861E2,-7.297866E1,-4.286898E1,-1.5279083E1,1.1865369E1,4.128287E1,7.60703E1,1.1145954E2,-4.2341323E0,-5.8723826E0,-3.9944806E0,-2.6883118E0,-2.608153E0,-1.6862688E0,-1.4008635E0,-3.1849107E-1,3.2170743E-1,1.6557581E0,1.5711478E0,2.4535134E0,3.133763E0,4.244349E0,5.7595425E0,3.6236103E0],"categories":[],"categories_nodes":[],"categories_segments":[],"categories_sizes":[],"default_left":[0,0,0,0,0,0,0,0,0,0,0,0,0,0,0,0,0,0,0,0,0,0,0,0,0,0,0,0,0,0,0],"id":11,"left_children":[1,3,5,7,9,11,13,15,17,19,21,23,25,27,29,-1,-1,-1,-1,-1,-1,-1,-1,-1,-1,-1,-1,-1,-1,-1,-1],"loss_changes":[1.1031694E7,1.561398E6,1.5798045E6,2.370195E5,2.1023325E5,2.5697762E5,1.94473E5,5.406175E4,7.045775E4,4.3450812E4,6.5530984E4,5.945511E4,5.2436625E4,6.494925E4,2.380125E4,0E0,0E0,0E0,0E0,0E0,0E0,0E0,0E0,0E0,0E0,0E0,0E0,0E0,0E0,0E0,0E0],"parents":[2147483647,0,0,1,1,2,2,3,3,4,4,5,5,6,6,7,7,8,8,9,9,10,10,11,11,12,12,13,13,14,14],"right_children":[2,4,6,8,10,12,14,16,18,20,22,24,26,28,30,-1,-1,-1,-1,-1,-1,-1,-1,-1,-1,-1,-1,-1,-1,-1,-1],"split_conditions":[1.8241962E0,1.6261679E0,2.0376544E0,1.4938045E0,1.721151E0,1.9167593E0,2.197336E0,1E0,4.9E1,4.9E1,5.6E1,7.9E1,1.9673853E0,8.6E1,1E0,-4.2341323E0,-5.8723826E0,-3.9944806E0,-2.6883118E0,-2.608153E0,-1.6862688E0,-1.4008635E0,-3.1849107E-1,3.2170743E-1,1.6557581E0,1.5711478E0,2.4535134E0,3.133763E0,4.244349E0,5.7595425E0,3.6236103E0],"split_indices":[2,2,2,2,2,2,2,6,4,4,4,4,2,4,7,0,0,0,0,0,0,0,0,0,0,0,0,0,0,0,0],"split_type":[0,0,0,0,0,0,0,0,0,0,0,0,0,0,0,0,0,0,0,0,0,0,0,0,0,0,0,0,0,0,0],"sum_hessian":[4E3,1.968E3,2.032E3,8.59E2,1.109E3,1.218E3,8.14E2,2.97E2,5.62E2,5.31E2,5.78E2,5.16E2,7.02E2,5.94E2,2.2E2,8.5E1,2.12E2,4.11E2,1.51E2,2.61E2,2.7E2,2.37E2,3.41E2,4.12E2,1.04E2,3.12E2,3.9E2,2.39E2,3.55E2,1.99E2,2.1E1],"tree_param":{"num_deleted":"0","num_feature":"9","num_nodes":"31","size_leaf_vector":"1"}},{"base_weights":[2.7676567E-3,-4.6170586E1,5.3984295E1,-7.561691E1,-1.8327412E1,3.619706E1,8.847975E1,-9.4640076E1,-5.9061184E1,-2.8558233E1,-2.6248143E0,2.3330729E1,5.0378616E1,7.127483E1,9.99278E1,-3.9525406E0,-5.2496567E0,-3.145527E0,-1.959306E0,-2.054566E0,-1.101489E0,-6.72907E-1,4.1597152E-1,6.655528E-1,1.5657352E0,1.6249237E0,2.754038E0,2.483934E0,4.0108285E0,4.100356E0,6.208741E0],"categories":[],"categories_nodes":[],"categories_segments":[],"categories_sizes":[],"default_left":[0,0,0,0,0,0,0,0,0,0,0,0,0,0,0,0,0,0,0,0,0,0,0,0,0,0,0,0,0,0,0],"id":12,"left_children":[1,3,5,7,9,11,13,15,17,19,21,23,25,27,29,-1,-1,-1,-1,-1,-1,-1,-1,-1,-1,-1,-1,-1,-1,-1,-1],"loss_changes":[9.975017E6,1.767094E6,1.12885E6,3.2447E5,1.7824706E5,2.2124912E5,1.16374E5,7.0139E4,4.060775E4,5.4079E4,5.2160926E4,5.0861156E4,4.6889375E4,4.5064125E4,1.52328E5,0E0,0E0,0E0,0E0,0E0,0E0,0E0,0E0,0E0,0E0,0E0,0E0,0E0,0E0,0E0,0E0],"parents":[2147483647,0,0,1,1,2,2,3,3,4,4,5,5,6,6,7,7,8,8,9,9,10,10,11,11,12,12,13,13,14,14],"right_children":[2,4,6,8,10,12,14,16,18,20,22,24,26,28,30,-1,-1,-1,-1,-1,-1,-1,-1,-1,-1,-1,-1,-1,-1,-1,-1],"split_conditions":[1.8594544E0,1.6602216E0,2.081129E0,1.5458766E0,1.7802997E0,1.9673853E0,9E1,1E0,1E0,4.9E1,6.4E1,7.1E1,7.4E1,1E0,1E0,-3.9525406E0,-5.2496567E0,-3.145527E0,-1.959306E0,-2.054566E0,-1.101489E0,-6.72907E-1,4.1597152E-1,6.655528E-1,1.5657352E0,1.6249237E0,2.754038E0,2.483934E0,4.0108285E0,4.100356E0,6.208741E0],"split_indices":[2,2,2,2,2,2,4,6,5,4,4,4,4,5,5,0,0,0,0,0,0,0,0,0,0,0,0,0,0,0,0],"split_type":[0,0,0,0,0,0,0,0,0,0,0,0,0,0,0,0,0,0,0,0,0,0,0,0,0,0,0,0,0,0,0],"sum_hessian":[4E3,2.156E3,1.844E3,1.047E3,1.109E3,1.218E3,6.26E2,4.85E2,5.62E2,6.71E2,4.38E2,6.4E2,5.78E2,2.53E2,3.73E2,1.97E2,2.88E2,4.69E2,9.3E1,2.28E2,4.43E2,2.2E2,2.18E2,2.85E2,3.55E2,1.22E2,4.56E2,7.6E1,1.77E2,2.17E2,1.56E2],"tree_param":{"num_deleted":"0","num_feature":"9","num_nodes":"31","size_leaf_vector":"1"}},{"base_weights":[4.0567936E-3,-4.3870262E1,5.129777E1,-7.106158E1,-1.6638294E1,3.4392635E1,8.4082565E1,-9.0512375E1,-5.5958397E1,-3.020291E1,-6.470832E0,2.2167671E1,4.786726E1,7.199892E1,9.918896E1,-4.9740047E0,-3.6341577E0,-3.010685E0,-1.7810799E0,-2.245281E0,-7.8426456E-1,1.9192198E-1,-1.1198E0,6.323912E-1,1.4876684E0,1.7945067E0,2.716815E0,2.6171017E0,4.1099014E0,4.1238914E0,6.2809362E0],"categories":[],"categories_nodes":[],"categories_segments":[],"categories_sizes":[],"default_left":[0,0,0,0,0,0,0,0,0,0,0,0,0,0,0,0,0,0,0,0,0,0,0,0,0,0,0,0,0,0,0],"id":13,"left_children":[1,3,5,7,9,11,13,15,17,19,21,23,25,27,29,-1,-1,-1,-1,-1,-1,-1,-1,-1,-1,-1,-1,-1,-1,-1,-1],"loss_changes":[9.006409E6,1.5960175E6,1.019665E6,3.11912E5,1.4861781E5,1.9974088E5,1.073115E5,6.79165E4,5.0643875E4,9.790872E4,1.01547266E5,4.591328E4,4.2911125E4,6.6267625E4,1.115405E5,0E0,0E0,0E0,0E0,0E0,0E0,0E0,0E0,0E0,0E0,0E0,0E0,0E0,0E0,0E0,0E0],"parents":[2147483647,0,0,1,1,2,2,3,3,4,4,5,5,6,6,7,7,8,8,9,9,10,10,11,11,12,12,13,13,14,14],"right_children":[2,4,6,8,10,12,14,16,18,20,22,24,26,28,30,-1,-1,-1,-1,-1,-1,-1,-1,-1,-1,-1,-1,-1,-1,-1,-1],"split_conditions":[1.8594544E0,1.665712E0,2.081129E0,1.5434502E0,5.6E1,1.9673853E0,9.3E1,4E1,1E0,1E0,1E0,7.1E1,7.8E1,1E0,1E0,-4.9740047E0,-3.6341577E0,-3.010685E0,-1.7810799E0,-2.245281E0,-7.8426456E-1,1.9192198E-1,-1.1198E0,6.323912E-1,1.4876684E0,1.7945067E0,2.716815E0,2.6171017E0,4.1099014E0,4.1238914E0,6.2809362E0],"split_indices":[2,2,2,2,4,2,4,4,5,5,6,4,4,5,5,0,0,0,0,0,0,0,0,0,0,0,0,0,0,0,0],"split_type":[0,0,0,0,0,0,0,0,0,0,0,0,0,0,0,0,0,0,0,0,0,0,0,0,0,0,0,0,0,0,0],"sum_hessian":[4E3,2.156E3,1.844E3,1.078E3,1.078E3,1.218E3,6.26E2,4.69E2,6.09E2,4.61E2,6.17E2,6.4E2,5.78E2,3.51E2,2.75E2,3.09E2,1.6E2,5.02E2,1.07E2,2.28E2,2.33E2,3.75E2,2.42E2,2.85E2,3.55E2,2.05E2,3.73E2,1.22E2,2.29E2,1.71E2,1.04E2],"tree_param":{"num_deleted":"0","num_feature":"9","num_nodes":"31","size_leaf_vector":"1"}},{"base_weights":[5.453379E-3,-4.8417625E1,4.20535E1,-8.103625E1,-3.184461E1,1.8390123E1,6.816278E1,-9.1670166E1,-6.510124E1,-4.4275196E1,-1.7684439E1,5.59481E0,2.9183552E1,5.323175E1,8.5390045E1,-3.7347953E0,-5.93786E0,-2.0664768E0,-3.6200223E0,-2.3504636E0,-5.433082E-1,-1.064714E0,1.08281575E-1,-1.4563788E0,4.1688618E-1,5.4202646E-1,1.6487992E0,2.83335E0,1.2943163E0,3.4139016E0,4.6987057E0],"categories":[],"categories_nodes":[],"categories_segments":[],"categories_sizes":[],"default_left":[0,0,0,0,0,0,0,0,0,0,0,0,0,0,0,0,0,0,0,0,0,0,0,0,0,0,0,0,0,0,0],"id":14,"left_children":[1,3,5,7,9,11,13,15,17,19,21,23,25,27,29,-1,-1,-1,-1,-1,-1,-1,-1,-1,-1,-1,-1,-1,-1,-1,-1],"loss_changes":[8.148456E6,1.0029145E6,1.3221462E6,1.0010925E5,2.1660075E5,1.5520519E5,2.573055E5,1.62628E5,4.1080375E4,5.95015E4,4.1534703E4,4.938697E4,4.2076906E4,5.0011125E4,6.2769E4,0E0,0E0,0E0,0E0,0E0,0E0,0E0,0E0,0E0,0E0,0E0,0E0,0E0,0E0,0E0,0E0],"parents":[2147483647,0,0,1,1,2,2,3,3,4,4,5,5,6,6,7,7,8,8,9,9,10,10,11,11,12,12,13,13,14,14],"right_children":[2,4,6,8,10,12,14,16,18,20,22,24,26,28,30,-1,-1,-1,-1,-1,-1,-1,-1,-1,-1,-1,-1,-1,-1,-1,-1],"split_conditions":[1.805345E0,1.5789342E0,2.0025966E0,4E1,1.7046975E0,1.8971939E0,2.1172824E0,1E0,1E0,6.4E1,6.9E1,5.1E1,6.5E1,1E0,9E1,-3.7347953E0,-5.93786E0,-2.0664768E0,-3.6200223E0,-2.3504636E0,-5.433082E-1,-1.064714E0,1.08281575E-1,-1.4563788E0,4.1688618E-1,5.4202646E-1,1.6487992E0,2.83335E0,1.2943163E0,3.4139016E0,4.6987057E0],"split_indices":[2,2,2,4,2,2,2,6,6,4,4,4,4,6,4,0,0,0,0,0,0,0,0,0,0,0,0,0,0,0,0],"split_type":[0,0,0,0,0,0,0,0,0,0,0,0,0,0,0,0,0,0,0,0,0,0,0,0,0,0,0,0,0,0,0],"sum_hessian":[4E3,1.859E3,2.141E3,6.25E2,1.234E3,1.124E3,1.017E3,3.72E2,2.53E2,6.56E2,5.78E2,5.15E2,6.09E2,5.47E2,4.7E2,2.31E2,1.41E2,6.1E1,1.92E2,6.06E2,5E1,4.89E2,8.9E1,3.7E1,4.78E2,1.05E2,5.04E2,4.85E2,6.2E1,1.6E2,3.1E2],"tree_param":{"num_deleted":"0","num_feature":"9","num_nodes":"31","size_leaf_vector":"1"}},{"base_weights":[3.7271567E-3,-4.6007065E1,3.9957077E1,-7.7008965E1,-3.0255491E1,2.082951E1,6.923426E1,-8.711259E1,-6.1868572E1,-4.206584E1,-1.6801857E1,7.5933332E0,3.3128643E1,5.4694992E1,8.160823E1,-3.5488603E0,-5.643058E0,-1.9648199E0,-3.4399586E0,-2.233134E0,-5.1667565E-1,-1.7051477E0,-6.471016E-1,1.5561035E-1,1.3845897E0,1.2932292E0,2.0179431E0,2.8705013E0,1.2680674E0,3.3316896E0,4.5495124E0],"categories":[],"categories_nodes":[],"categories_segments":[],"categories_sizes":[],"default_left":[0,0,0,0,0,0,0,0,0,0,0,0,0,0,0,0,0,0,0,0,0,0,0,0,0,0,0,0,0,0,0],"id":15,"left_children":[1,3,5,7,9,11,13,15,17,19,21,23,25,27,29,-1,-1,-1,-1,-1,-1,-1,-1,-1,-1,-1,-1,-1,-1,-1,-1],"loss_changes":[7.3568175E6,9.0596175E5,1.1980808E6,9.037125E4,1.95525E5,2.1089162E5,1.47739E5,1.4695725E5,3.7031875E4,5.367775E4,3.8223812E4,5.629371E4,3.4250062E4,2.97635E4,5.786E4,0E0,0E0,0E0,0E0,0E0,0E0,0E0,0E0,0E0,0E0,0E0,0E0,0E0,0E0,0E0,0E0],"parents":[2147483647,0,0,1,1,2,2,3,3,4,4,5,5,6,6,7,7,8,8,9,9,10,10,11,11,12,12,13,13,14,14],"right_children":[2,4,6,8,10,12,14,16,18,20,22,24,26,28,30,-1,-1,-1,-1,-1,-1,-1,-1,-1,-1,-1,-1,-1,-1,-1,-1],"split_conditions":[1.805345E0,1.5789342E0,2.0311537E0,4E1,1.7046975E0,1.9167593E0,2.1209264E0,1E0,1E0,6.4E1,4.7E1,7.9E1,7.8E1,1E0,1E0,-3.5488603E0,-5.643058E0,-1.9648199E0,-3.4399586E0,-2.233134E0,-5.1667565E-1,-1.7051477E0,-6.471016E-1,1.5561035E-1,1.3845897E0,1.2932292E0,2.0179431E0,2.8705013E0,1.2680674E0,3.3316896E0,4.5495124E0],"split_indices":[2,2,2,4,2,2,2,6,6,4,4,4,4,6,5,0,0,0,0,0,0,0,0,0,0,0,0,0,0,0,0],"split_type":[0,0,0,0,0,0,0,0,0,0,0,0,0,0,0,0,0,0,0,0,0,0,0,0,0,0,0,0,0,0,0],"sum_hessian":[4E3,1.859E3,2.141E3,6.25E2,1.234E3,1.296E3,8.45E2,3.72E2,2.53E2,6.56E2,5.78E2,6.25E2,6.71E2,3.91E2,4.54E2,2.31E2,1.41E2,6.1E1,1.92E2,6.06E2,5E1,1.04E2,4.74E2,5.12E2,1.13E2,3.37E2,3.34E2,3.57E2,3.4E1,1.78E2,2.76E2],"tree_param":{"num_deleted":"0","num_feature":"9","num_nodes":"31","size_leaf_vector":"1"}},{"base_weights":[2.830637E-3,-3.7702385E1,4.408421E1,-6.4451675E1,-1.7066381E1,2.9530863E1,7.2308205E1,-8.458293E1,-5.5006866E1,-2.8088316E1,-4.8347316E0,1.9007254E1,4.1130352E1,6.117831E1,8.624087E1,-3.2318115E0,-4.6119714E0,-3.0835655E0,-1.8846035E0,-3.218409E0,-1.3131998E0,-5.5913913E-1,3.5341144E-1,-4.0358496E-1,1.0631111E0,1.5296816E0,2.3681026E0,2.1690392E0,3.521506E0,3.552459E0,5.5152483E0],"categories":[],"categories_nodes":[],"categories_segments":[],"categories_sizes":[],"default_left":[0,0,0,0,0,0,0,0,0,0,0,0,0,0,0,0,0,0,0,0,0,0,0,0,0,0,0,0,0,0,0],"id":16,"left_children":[1,3,5,7,9,11,13,15,17,19,21,23,25,27,29,-1,-1,-1,-1,-1,-1,-1,-1,-1,-1,-1,-1,-1,-1,-1,-1],"loss_changes":[6.651716E6,1.1895608E6,7.55705E5,1.73885E5,1.6420544E5,1.4801975E5,9.1952E4,3.9549E4,7.1758125E4,4.073478E4,4.3828625E4,3.9312453E4,3.6569125E4,5.4904875E4,9.3061375E4,0E0,0E0,0E0,0E0,0E0,0E0,0E0,0E0,0E0,0E0,0E0,0E0,0E0,0E0,0E0,0E0],"parents":[2147483647,0,0,1,1,2,2,3,3,4,4,5,5,6,6,7,7,8,8,9,9,10,10,11,11,12,12,13,13,14,14],"right_children":[2,4,6,8,10,12,14,16,18,20,22,24,26,28,30,-1,-1,-1,-1,-1,-1,-1,-1,-1,-1,-1,-1,-1,-1,-1,-1],"split_conditions":[1.8594544E0,1.6409504E0,2.081129E0,1.4938045E0,1.7566394E0,1.9673853E0,9.3E1,1E0,4.9E1,3.4E1,6.7E1,5.8E1,7.9E1,1E0,1E0,-3.2318115E0,-4.6119714E0,-3.0835655E0,-1.8846035E0,-3.218409E0,-1.3131998E0,-5.5913913E-1,3.5341144E-1,-4.0358496E-1,1.0631111E0,1.5296816E0,2.3681026E0,2.1690392E0,3.521506E0,3.552459E0,5.5152483E0],"split_indices":[2,2,2,2,2,2,4,6,4,4,4,4,4,5,5,0,0,0,0,0,0,0,0,0,0,0,0,0,0,0,0],"split_type":[0,0,0,0,0,0,0,0,0,0,0,0,0,0,0,0,0,0,0,0,0,0,0,0,0,0,0,0,0,0,0],"sum_hessian":[4E3,2.156E3,1.844E3,9.38E2,1.218E3,1.218E3,6.26E2,2.97E2,6.41E2,6.4E2,5.78E2,6.4E2,5.78E2,3.51E2,2.75E2,8.5E1,2.12E2,4.61E2,1.8E2,2.9E1,6.11E2,3.77E2,2.01E2,4.9E1,5.91E2,2.17E2,3.61E2,1.22E2,2.29E2,1.71E2,1.04E2],"tree_param":{"num_deleted":"0","num_feature":"9","num_nodes":"31","size_leaf_vector":"1"}},{"base_weights":[3.1296497E-3,-3.58254E1,4.189047E1,-6.163271E1,-1.6508827E1,2.8058058E1,6.871633E1,-6.939641E1,-3.8476376E1,-2.7831974E1,-5.448715E0,1.7227573E1,3.8290085E1,5.4074127E1,7.8476776E1,-2.7861571E0,-4.625143E0,-8.1549865E-1,-2.2598083E0,-1.5511265E0,-4.5264807E-1,-5.765921E-1,3.4157345E-1,7.5700635E-1,2.3272667E0,1.4111294E0,2.2013097E0,1.822547E0,3.0696929E0,3.1829085E0,4.927654E0],"categories":[],"categories_nodes":[],"categories_segments":[],"categories_sizes":[],"default_left":[0,0,0,0,0,0,0,0,0,0,0,0,0,0,0,0,0,0,0,0,0,0,0,0,0,0,0,0,0,0,0],"id":17,"left_children":[1,3,5,7,9,11,13,15,17,19,21,23,25,27,29,-1,-1,-1,-1,-1,-1,-1,-1,-1,-1,-1,-1,-1,-1,-1,-1],"loss_changes":[6.006049E6,1.074266E6,6.8268975E5,1.6326575E5,1.5451394E5,1.3442725E5,8.5364E4,2.1284425E5,3.411797E4,3.6267594E4,4.684217E4,3.564764E4,3.4907812E4,3.0527375E4,1.0499225E5,0E0,0E0,0E0,0E0,0E0,0E0,0E0,0E0,0E0,0E0,0E0,0E0,0E0,0E0,0E0,0E0],"parents":[2147483647,0,0,1,1,2,2,3,3,4,4,5,5,6,6,7,7,8,8,9,9,10,10,11,11,12,12,13,13,14,14],"right_children":[2,4,6,8,10,12,14,16,18,20,22,24,26,28,30,-1,-1,-1,-1,-1,-1,-1,-1,-1,-1,-1,-1,-1,-1,-1,-1],"split_conditions":[1.8594544E0,1.6387901E0,2.081129E0,4.7E1,1.7502176E0,1.9592826E0,9E1,1E0,1E0,6.5E1,6.7E1,9E1,7.8E1,1E0,1E0,-2.7861571E0,-4.625143E0,-8.1549865E-1,-2.2598083E0,-1.5511265E0,-4.5264807E-1,-5.765921E-1,3.4157345E-1,7.5700635E-1,2.3272667E0,1.4111294E0,2.2013097E0,1.822547E0,3.0696929E0,3.1829085E0,4.927654E0],"split_indices":[2,2,2,4,2,2,4,6,6,4,4,4,4,5,5,0,0,0,0,0,0,0,0,0,0,0,0,0,0,0,0],"split_type":[0,0,0,0,0,0,0,0,0,0,0,0,0,0,0,0,0,0,0,0,0,0,0,0,0,0,0,0,0,0,0],"sum_hessian":[4E3,2.156E3,1.844E3,9.22E2,1.234E3,1.218E3,6.26E2,6.89E2,2.33E2,6.09E2,6.25E2,5.93E2,6.25E2,2.53E2,3.73E2,4.35E2,2.54E2,5.5E1,1.78E2,5.2E2,8.9E1,4.18E2,2.07E2,5.55E2,3.8E1,2.29E2,3.96E2,7.6E1,1.77E2,2.17E2,1.56E2],"tree_param":{"num_deleted":"0","num_feature":"9","num_nodes":"31","size_leaf_vector":"1"}},{"base_weights":[4.710454E-3,-3.8908684E1,3.48627E1,-6.0037846E1,-2.1263342E1,1.8353111E1,5.9527332E1,-7.24407E1,-4.6993084E1,-3.434027E1,-1.3902611E1,5.987779E0,2.7752068E1,4.712134E1,7.092168E1,-2.9952838E0,-4.9118223E0,-1.3957297E0,-2.859819E0,-2.5873299E0,-1.0447959E0,-2.067983E-1,-1.5094966E0,-1.3016839E0,4.3143174E-1,5.253873E-1,1.5374919E0,1.5628259E0,2.8615339E0,2.8922668E0,4.6792703E0],"categories":[],"categories_nodes":[],"categories_segments":[],"categories_sizes":[],"default_left":[0,0,0,0,0,0,0,0,0,0,0,0,0,0,0,0,0,0,0,0,0,0,0,0,0,0,0,0,0,0,0],"id":18,"left_children":[1,3,5,7,9,11,13,15,17,19,21,23,25,27,29,-1,-1,-1,-1,-1,-1,-1,-1,-1,-1,-1,-1,-1,-1,-1,-1],"loss_changes":[5.428484E6,7.037475E5,8.58513E5,1.3573725E5,9.88585E4,1.4696984E5,1.16247E5,1.3606575E5,8.0551375E4,8.573894E4,1.0518111E5,4.656572E4,3.684525E4,6.3647375E4,1.24688E5,0E0,0E0,0E0,0E0,0E0,0E0,0E0,0E0,0E0,0E0,0E0,0E0,0E0,0E0,0E0,0E0],"parents":[2147483647,0,0,1,1,2,2,3,3,4,4,5,5,6,6,7,7,8,8,9,9,10,10,11,11,12,12,13,13,14,14],"right_children":[2,4,6,8,10,12,14,16,18,20,22,24,26,28,30,-1,-1,-1,-1,-1,-1,-1,-1,-1,-1,-1,-1,-1,-1,-1,-1],"split_conditions":[1.8095776E0,1.6261679E0,2.0311537E0,4E1,4.9E1,1.9092512E0,9E1,1E0,1E0,1E0,1E0,5.2E1,6.6E1,1E0,1E0,-2.9952838E0,-4.9118223E0,-1.3957297E0,-2.859819E0,-2.5873299E0,-1.0447959E0,-2.067983E-1,-1.5094966E0,-1.3016839E0,4.3143174E-1,5.253873E-1,1.5374919E0,1.5628259E0,2.8615339E0,2.8922668E0,4.6792703E0],"split_indices":[2,2,2,4,4,2,4,6,6,5,6,4,4,5,5,0,0,0,0,0,0,0,0,0,0,0,0,0,0,0,0],"split_type":[0,0,0,0,0,0,0,0,0,0,0,0,0,0,0,0,0,0,0,0,0,0,0,0,0,0,0,0,0,0,0],"sum_hessian":[4E3,1.89E3,2.11E3,8.59E2,1.031E3,1.265E3,8.45E2,4.38E2,4.21E2,3.7E2,6.61E2,5.47E2,7.18E2,4.07E2,4.38E2,2.97E2,1.41E2,1.48E2,2.73E2,1.6E2,2.1E2,4.14E2,2.47E2,4.1E1,5.06E2,1.07E2,6.11E2,1.6E2,2.47E2,2.8E2,1.58E2],"tree_param":{"num_deleted":"0","num_feature":"9","num_nodes":"31","size_leaf_vector":"1"}},{"base_weights":[3.3917073E-3,-3.2370922E1,3.7852386E1,-5.2577007E1,-1.2134838E1,2.5329472E1,6.2138798E1,-6.644228E1,-4.1144176E1,-1.7659115E1,4.482935E0,1.6097013E1,3.527495E1,5.2209038E1,7.45777E1,-3.5476136E0,-2.0186892E0,-2.2504613E0,-1.156608E0,-6.831589E-1,-2.7760456E0,1.1822951E0,-2.9430914E-1,1.3739592E-1,1.5428075E0,2.3943632E0,7.911943E-1,1.8432791E0,3.009373E0,3.0738752E0,4.76634E0],"categories":[],"categories_nodes":[],"categories_segments":[],"categories_sizes":[],"default_left":[0,0,0,0,0,0,0,0,0,0,0,0,0,0,0,0,0,0,0,0,0,0,0,0,0,0,0,0,0,0,0],"id":19,"left_children":[1,3,5,7,9,11,13,15,17,19,21,23,25,27,29,-1,-1,-1,-1,-1,-1,-1,-1,-1,-1,-1,-1,-1,-1,-1,-1],"loss_changes":[4.903792E6,8.8134225E5,5.5955825E5,1.6830875E5,9.913261E4,1.1136219E5,7.355025E4,5.427375E4,4.0311562E4,1.2178905E5,5.378901E4,1.2482659E5,1.4300144E5,4.0871812E4,6.9161125E4,0E0,0E0,0E0,0E0,0E0,0E0,0E0,0E0,0E0,0E0,0E0,0E0,0E0,0E0,0E0,0E0],"parents":[2147483647,0,0,1,1,2,2,3,3,4,4,5,5,6,6,7,7,8,8,9,9,10,10,11,11,12,12,13,13,14,14],"right_children":[2,4,6,8,10,12,14,16,18,20,22,24,26,28,30,-1,-1,-1,-1,-1,-1,-1,-1,-1,-1,-1,-1,-1,-1,-1,-1],"split_conditions":[1.8594544E0,1.665712E0,2.081129E0,1.5458766E0,6.7E1,7.8E1,9.3E1,4.6E1,1E0,1E0,1E0,1E0,1E0,1E0,1E0,-3.5476136E0,-2.0186892E0,-2.2504613E0,-1.156608E0,-6.831589E-1,-2.7760456E0,1.1822951E0,-2.9430914E-1,1.3739592E-1,1.5428075E0,2.3943632E0,7.911943E-1,1.8432791E0,3.009373E0,3.0738752E0,4.76634E0],"split_indices":[2,2,2,2,4,4,4,4,5,6,6,5,6,5,5,0,0,0,0,0,0,0,0,0,0,0,0,0,0,0,0],"split_type":[0,0,0,0,0,0,0,0,0,0,0,0,0,0,0,0,0,0,0,0,0,0,0,0,0,0,0,0,0,0,0],"sum_hessian":[4E3,2.156E3,1.844E3,1.078E3,1.078E3,1.218E3,6.26E2,4.85E2,5.93E2,8.09E2,2.69E2,6.33E2,5.85E2,3.51E2,2.75E2,4.12E2,7.3E1,4.87E2,1.06E2,7.33E2,7.6E1,9.4E1,1.75E2,3.33E2,3E2,3.54E2,2.31E2,1.22E2,2.29E2,1.71E2,1.04E2],"tree_param":{"num_deleted":"0","num_feature":"9","num_nodes":"31","size_leaf_vector":"1"}},{"base_weights":[4.725465E-3,-3.627949E1,3.0544912E1,-6.0003048E1,-2.3914686E1,1.3004091E1,5.0433563E1,-6.8650764E1,-4.7067604E1,-3.6715145E1,-1.662611E1,-1.2820717E0,1.8761723E1,3.9069965E1,6.274362E1,-2.7693841E0,-4.4918284E0,-1.4036524E0,-2.6462803E0,-2.518599E0,-1.1600579E0,-1.0225476E0,1.0631942E0,-7.024376E-1,3.692592E-1,7.322566E-1,2.473198E0,2.1096394E0,7.576274E-1,1.5364643E0,3.3046749E0],"categories":[],"categories_nodes":[],"categories_segments":[],"categories_sizes":[],"default_left":[0,0,0,0,0,0,0,0,0,0,0,0,0,0,0,0,0,0,0,0,0,0,0,0,0,0,0,0,0,0,0],"id":20,"left_children":[1,3,5,7,9,11,13,15,17,19,21,23,25,27,29,-1,-1,-1,-1,-1,-1,-1,-1,-1,-1,-1,-1,-1,-1,-1,-1],"loss_changes":[4.4347235E6,5.3507875E5,7.574239E5,6.67945E4,1.1171931E5,9.51102E4,1.3995325E5,9.9833125E4,2.6776812E4,7.929869E4,1.1188078E5,3.6950895E4,1.0341975E5,3.9095688E4,5.0196875E4,0E0,0E0,0E0,0E0,0E0,0E0,0E0,0E0,0E0,0E0,0E0,0E0,0E0,0E0,0E0,0E0],"parents":[2147483647,0,0,1,1,2,2,3,3,4,4,5,5,6,6,7,7,8,8,9,9,10,10,11,11,12,12,13,13,14,14],"right_children":[2,4,6,8,10,12,14,16,18,20,22,24,26,28,30,-1,-1,-1,-1,-1,-1,-1,-1,-1,-1,-1,-1,-1,-1,-1,-1],"split_conditions":[1.7997648E0,1.5789342E0,2.0025966E0,4E1,4.7E1,6.5E1,2.1121979E0,1E0,1E0,1E0,1E0,1E0,1E0,1E0,8.2E1,-2.7693841E0,-4.4918284E0,-1.4036524E0,-2.6462803E0,-2.518599E0,-1.1600579E0,-1.0225476E0,1.0631942E0,-7.024376E-1,3.692592E-1,7.322566E-1,2.473198E0,2.1096394E0,7.576274E-1,1.5364643E0,3.3046749E0],"split_indices":[2,2,2,4,4,4,2,6,6,5,5,5,5,6,4,0,0,0,0,0,0,0,0,0,0,0,0,0,0,0,0],"split_type":[0,0,0,0,0,0,0,0,0,0,0,0,0,0,0,0,0,0,0,0,0,0,0,0,0,0,0,0,0,0,0],"sum_hessian":[4E3,1.828E3,2.172E3,6.25E2,1.203E3,1.155E3,1.017E3,3.72E2,2.53E2,4.35E2,7.68E2,3.32E2,8.23E2,5.31E2,4.86E2,2.31E2,1.41E2,6.1E1,1.92E2,2.15E2,2.2E2,6.98E2,7E1,1.34E2,1.98E2,7.27E2,9.6E1,4.69E2,6.2E1,4.7E1,4.39E2],"tree_param":{"num_deleted":"0","num_feature":"9","num_nodes":"31","size_leaf_vector":"1"}},{"base_weights":[3.3915853E-3,-2.9267466E1,3.4224113E1,-4.756838E1,-1.0939427E1,2.2909504E1,5.6167156E1,-6.0648754E1,-3.75258E1,-2.1297276E1,-3.1784797E0,1.1236196E1,3.0093658E1,4.691053E1,6.77692E1,-2.4984157E0,-4.4424305E0,-1.2080607E0,-2.3987792E0,-1.7092904E0,-4.2965648E-1,2.96552E-1,-8.6303943E-1,-2.4474458E-1,1.196248E0,1.9368795E0,5.878543E-1,1.6208218E0,2.722888E0,2.7709262E0,4.367769E0],"categories":[],"categories_nodes":[],"categories_segments":[],"categories_sizes":[],"default_left":[0,0,0,0,0,0,0,0,0,0,0,0,0,0,0,0,0,0,0,0,0,0,0,0,0,0,0,0,0,0,0],"id":21,"left_children":[1,3,5,7,9,11,13,15,17,19,21,23,25,27,29,-1,-1,-1,-1,-1,-1,-1,-1,-1,-1,-1,-1,-1,-1,-1,-1],"loss_changes":[4.008683E6,7.229801E5,4.5678425E5,1.394625E5,8.666957E4,1.0189069E5,6.4158125E4,1.3621462E5,8.44505E4,7.535308E4,7.9381305E4,9.549966E4,1.1905369E5,3.6740062E4,6.1924125E4,0E0,0E0,0E0,0E0,0E0,0E0,0E0,0E0,0E0,0E0,0E0,0E0,0E0,0E0,0E0,0E0],"parents":[2147483647,0,0,1,1,2,2,3,3,4,4,5,5,6,6,7,7,8,8,9,9,10,10,11,11,12,12,13,13,14,14],"right_children":[2,4,6,8,10,12,14,16,18,20,22,24,26,28,30,-1,-1,-1,-1,-1,-1,-1,-1,-1,-1,-1,-1,-1,-1,-1,-1],"split_conditions":[1.8594544E0,1.665712E0,2.081129E0,3.9E1,5.6E1,7.4E1,9.3E1,1E0,1E0,1E0,1E0,1E0,1E0,1E0,1E0,-2.4984157E0,-4.4424305E0,-1.2080607E0,-2.3987792E0,-1.7092904E0,-4.2965648E-1,2.96552E-1,-8.6303943E-1,-2.4474458E-1,1.196248E0,1.9368795E0,5.878543E-1,1.6208218E0,2.722888E0,2.7709262E0,4.367769E0],"split_indices":[2,2,2,4,4,4,4,6,6,5,6,5,6,5,5,0,0,0,0,0,0,0,0,0,0,0,0,0,0,0,0],"split_type":[0,0,0,0,0,0,0,0,0,0,0,0,0,0,0,0,0,0,0,0,0,0,0,0,0,0,0,0,0,0,0],"sum_hessian":[4E3,2.156E3,1.844E3,1.078E3,1.078E3,1.218E3,6.26E2,4.66E2,6.12E2,4.61E2,6.17E2,4.65E2,7.53E2,3.51E2,2.75E2,3.4E2,1.26E2,2.7E2,3.42E2,2.28E2,2.33E2,3.75E2,2.42E2,2.05E2,2.6E2,5.11E2,2.42E2,1.22E2,2.29E2,1.71E2,1.04E2],"tree_param":{"num_deleted":"0","num_feature":"9","num_nodes":"31","size_leaf_vector":"1"}},{"base_weights":[3.6458934E-3,-3.0380054E1,2.996514E1,-4.872341E1,-1.4835786E1,1.7376009E1,5.0169956E1,-5.8876152E1,-3.828318E1,-1.1413526E1,-5.464129E1,7.855557E0,4.4020897E1,5.8841892E1,2.2289204E1,-3.2363307E0,-9.0078926E-1,-1.1114936E0,-2.4032552E0,-1.3824995E0,-1.2074498E-1,-1.336214E0,-2.921499E0,8.0960953E-1,-5.1580316E-1,1.7363743E0,2.641259E0,3.3562477E0,2.0945518E0,4.3949088E-1,1.3611933E0],"categories":[],"categories_nodes":[],"categories_segments":[],"categories_sizes":[],"default_left":[0,0,0,0,0,0,0,0,0,0,0,0,0,0,0,0,0,0,0,0,0,0,0,0,0,0,0,0,0,0,0],"id":22,"left_children":[1,3,5,7,9,11,13,15,17,19,21,23,25,27,29,-1,-1,-1,-1,-1,-1,-1,-1,-1,-1,-1,-1,-1,-1,-1,-1],"loss_changes":[3.6431845E6,5.658385E5,5.1166588E5,9.430925E4,1.460904E5,3.1496772E5,1.855845E5,1.0879775E5,6.991006E4,1.4501634E5,7.4288438E3,1.390835E5,2.492125E4,7.9886375E4,1.2084469E4,0E0,0E0,0E0,0E0,0E0,0E0,0E0,0E0,0E0,0E0,0E0,0E0,0E0,0E0,0E0,0E0],"parents":[2147483647,0,0,1,1,2,2,3,3,4,4,5,5,6,6,7,7,8,8,9,9,10,10,11,11,12,12,13,13,14,14],"right_children":[2,4,6,8,10,12,14,16,18,20,22,24,26,28,30,-1,-1,-1,-1,-1,-1,-1,-1,-1,-1,-1,-1,-1,-1,-1,-1],"split_conditions":[6.5E1,1.6387901E0,8.6E1,4E1,1E0,1E0,1E0,1E0,1E0,4.9E1,1.6464634E0,1E0,7.5E1,1E0,9E1,-3.2363307E0,-9.0078926E-1,-1.1114936E0,-2.4032552E0,-1.3824995E0,-1.2074498E-1,-1.336214E0,-2.921499E0,8.0960953E-1,-5.1580316E-1,1.7363743E0,2.641259E0,3.3562477E0,2.0945518E0,4.3949088E-1,1.3611933E0],"split_indices":[4,2,4,4,6,5,6,5,6,4,2,6,4,7,4,0,0,0,0,0,0,0,0,0,0,0,0,0,0,0,0],"split_type":[0,0,0,0,0,0,0,0,0,0,0,0,0,0,0,0,0,0,0,0,0,0,0,0,0,0,0,0,0,0,0],"sum_hessian":[4E3,1.986E3,2.014E3,9.1E2,1.076E3,1.242E3,7.72E2,4.59E2,4.51E2,9.92E2,8.4E1,9.16E2,3.26E2,5.88E2,1.84E2,4.01E2,5.8E1,1.72E2,2.79E2,3.53E2,6.39E2,1.1E1,7.3E1,6.28E2,2.88E2,1.61E2,1.65E2,3.93E2,1.95E2,5E1,1.34E2],"tree_param":{"num_deleted":"0","num_feature":"9","num_nodes":"31","size_leaf_vector":"1"}},{"base_weights":[3.093648E-3,-3.0336416E1,2.7099115E1,-2.1105597E1,-5.6921818E1,1.1080678E1,4.2956287E1,-3.424859E1,-3.3040862E0,-7.066832E1,-4.156716E1,2.1365073E0,3.6627625E1,5.1021214E1,1.7233091E1,-2.1782777E0,-8.2785684E-1,-5.990228E-1,6.4899963E-1,-4.489072E0,-3.1402605E0,-1.8493515E0,-3.2738E0,5.136365E-1,-8.234777E-1,1.5042236E0,2.1796837E0,2.9629142E0,1.7007312E0,3.7256935E-1,1.2936372E0],"categories":[],"categories_nodes":[],"categories_segments":[],"categories_sizes":[],"default_left":[0,0,0,0,0,0,0,0,0,0,0,0,0,0,0,0,0,0,0,0,0,0,0,0,0,0,0,0,0,0,0],"id":23,"left_children":[1,3,5,7,9,11,13,15,17,19,21,23,25,27,29,-1,-1,-1,-1,-1,-1,-1,-1,-1,-1,-1,-1,-1,-1,-1,-1],"loss_changes":[3.2899645E6,4.6212338E5,5.364951E5,3.2814E5,9.964375E4,2.405283E5,2.1943875E5,1.32297E5,8.450366E4,3.2684875E4,2.2983531E4,1.1839936E5,1.11318125E4,1.111725E5,2.1357398E4,0E0,0E0,0E0,0E0,0E0,0E0,0E0,0E0,0E0,0E0,0E0,0E0,0E0,0E0,0E0,0E0],"parents":[2147483647,0,0,1,1,2,2,3,3,4,4,5,5,6,6,7,7,8,8,9,9,10,10,11,11,12,12,13,13,14,14],"right_children":[2,4,6,8,10,12,14,16,18,20,22,24,26,28,30,-1,-1,-1,-1,-1,-1,-1,-1,-1,-1,-1,-1,-1,-1,-1,-1],"split_conditions":[6.3E1,1E0,8.1E1,4.9E1,4.7E1,1E0,1E0,1E0,1E0,3.6E1,1.6775509E0,1E0,7.2E1,1E0,9E1,-2.1782777E0,-8.2785684E-1,-5.990228E-1,6.4899963E-1,-4.489072E0,-3.1402605E0,-1.8493515E0,-3.2738E0,5.136365E-1,-8.234777E-1,1.5042236E0,2.1796837E0,2.9629142E0,1.7007312E0,3.7256935E-1,1.2936372E0],"split_indices":[4,6,4,4,4,5,6,5,5,4,2,6,4,7,4,0,0,0,0,0,0,0,0,0,0,0,0,0,0,0,0],"split_type":[0,0,0,0,0,0,0,0,0,0,0,0,0,0,0,0,0,0,0,0,0,0,0,0,0,0,0,0,0,0,0],"sum_hessian":[4E3,1.887E3,2.113E3,1.402E3,4.85E2,1.052E3,1.061E3,8.06E2,5.96E2,2.54E2,2.31E2,7.8E2,2.72E2,8.07E2,2.54E2,5.27E2,2.79E2,3.89E2,2.07E2,7.1E1,1.83E2,1.96E2,3.5E1,5.43E2,2.37E2,1.43E2,1.29E2,5.42E2,2.65E2,1.2E2,1.34E2],"tree_param":{"num_deleted":"0","num_feature":"9","num_nodes":"31","size_leaf_vector":"1"}},{"base_weights":[1.4418621E-3,-2.7458723E1,2.7080025E1,-4.397028E1,-1.3466627E1,1.6192694E1,4.6513275E1,-4.9410564E1,-2.6863226E1,-1.0352375E1,-4.9689995E1,7.4859147E0,4.067287E1,5.3973907E1,2.1545277E1,-1.9456719E0,-3.3582413E0,-3.7924716E-1,-1.6583471E0,-1.2463531E0,-1.13728724E-1,-3.1676276E0,-2.0741725E0,-5.410598E-2,1.1600714E0,1.5667968E0,2.4471018E0,2.3083904E0,3.3406074E0,1.3415382E0,4.0807644E-1],"categories":[],"categories_nodes":[],"categories_segments":[],"categories_sizes":[],"default_left":[0,0,0,0,0,0,0,0,0,0,0,0,0,0,0,0,0,0,0,0,0,0,0,0,0,0,0,0,0,0,0],"id":24,"left_children":[1,3,5,7,9,11,13,15,17,19,21,23,25,27,29,-1,-1,-1,-1,-1,-1,-1,-1,-1,-1,-1,-1,-1,-1,-1,-1],"loss_changes":[2.9758168E6,4.5846688E5,4.2557288E5,8.3456875E4,1.2098059E5,2.7529012E5,1.3351538E5,1.25981E5,2.6726953E4,1.168506E5,6.9023125E3,1.2861686E5,2.4640062E4,5.263575E4,1.1665273E4,0E0,0E0,0E0,0E0,0E0,0E0,0E0,0E0,0E0,0E0,0E0,0E0,0E0,0E0,0E0,0E0],"parents":[2147483647,0,0,1,1,2,2,3,3,4,4,5,5,6,6,7,7,8,8,9,9,10,10,11,11,12,12,13,13,14,14],"right_children":[2,4,6,8,10,12,14,16,18,20,22,24,26,28,30,-1,-1,-1,-1,-1,-1,-1,-1,-1,-1,-1,-1,-1,-1,-1,-1],"split_conditions":[6.5E1,1.6387901E0,8.7E1,4.7E1,1E0,1E0,1E0,1E0,1E0,4.9E1,5.8E1,1E0,7.5E1,1E0,2.0169268E0,-1.9456719E0,-3.3582413E0,-3.7924716E-1,-1.6583471E0,-1.2463531E0,-1.13728724E-1,-3.1676276E0,-2.0741725E0,-5.410598E-2,1.1600714E0,1.5667968E0,2.4471018E0,2.3083904E0,3.3406074E0,1.3415382E0,4.0807644E-1],"split_indices":[4,2,4,4,6,5,6,6,6,4,4,8,4,5,2,0,0,0,0,0,0,0,0,0,0,0,0,0,0,0,0],"split_type":[0,0,0,0,0,0,0,0,0,0,0,0,0,0,0,0,0,0,0,0,0,0,0,0,0,0,0,0,0,0,0],"sum_hessian":[4E3,1.986E3,2.014E3,9.1E2,1.076E3,1.292E3,7.22E2,6.89E2,2.21E2,9.92E2,8.4E1,9.54E2,3.38E2,5.55E2,1.67E2,4.35E2,2.54E2,5.5E1,1.66E2,3.53E2,6.39E2,2.9E1,5.5E1,6.18E2,3.36E2,1.61E2,1.77E2,3.48E2,2.07E2,1.19E2,4.8E1],"tree_param":{"num_deleted":"0","num_feature":"9","num_nodes":"31","size_leaf_vector":"1"}},{"base_weights":[1.0147686E-3,-2.6092798E1,2.5732233E1,-4.177982E1,-1.2799419E1,1.0988898E1,3.8952015E1,-5.1060577E1,-3.2242363E1,-2.1539774E1,-4.7972628E-1,2.773955E0,3.411108E1,3.0792017E1,5.9866516E1,-2.8156774E0,-7.201873E-1,-8.945837E-1,-2.0496945E0,-8.747571E-1,-2.3633585E0,-9.1985625E-1,6.515093E-1,5.207827E-1,-7.1159476E-1,1.9499216E0,1.0493243E0,1.1710278E0,2.309311E0,2.6769028E0,3.9106967E0],"categories":[],"categories_nodes":[],"categories_segments":[],"categories_sizes":[],"default_left":[0,0,0,0,0,0,0,0,0,0,0,0,0,0,0,0,0,0,0,0,0,0,0,0,0,0,0,0,0,0,0],"id":25,"left_children":[1,3,5,7,9,11,13,15,17,19,21,23,25,27,29,-1,-1,-1,-1,-1,-1,-1,-1,-1,-1,-1,-1,-1,-1,-1,-1],"loss_changes":[2.687045E6,4.1382112E5,3.92303E5,7.8990875E4,1.15959375E5,1.8111522E5,1.794E5,8.7765125E4,5.6033375E4,6.472947E4,1.0868371E5,9.176552E4,1.52176875E4,8.584225E4,3.02975E4,0E0,0E0,0E0,0E0,0E0,0E0,0E0,0E0,0E0,0E0,0E0,0E0,0E0,0E0,0E0,0E0],"parents":[2147483647,0,0,1,1,2,2,3,3,4,4,5,5,6,6,7,7,8,8,9,9,10,10,11,11,12,12,13,13,14,14],"right_children":[2,4,6,8,10,12,14,16,18,20,22,24,26,28,30,-1,-1,-1,-1,-1,-1,-1,-1,-1,-1,-1,-1,-1,-1,-1,-1],"split_conditions":[6.5E1,1.6387901E0,8.1E1,4E1,1E0,1E0,1E0,1E0,1E0,1E0,4.7E1,1E0,2.071555E0,1E0,9.5E1,-2.8156774E0,-7.201873E-1,-8.945837E-1,-2.0496945E0,-8.747571E-1,-2.3633585E0,-9.1985625E-1,6.515093E-1,5.207827E-1,-7.1159476E-1,1.9499216E0,1.0493243E0,1.1710278E0,2.309311E0,2.6769028E0,3.9106967E0],"split_indices":[4,2,4,4,5,5,5,5,6,6,4,6,2,8,4,0,0,0,0,0,0,0,0,0,0,0,0,0,0,0,0],"split_type":[0,0,0,0,0,0,0,0,0,0,0,0,0,0,0,0,0,0,0,0,0,0,0,0,0,0,0,0,0,0,0],"sum_hessian":[4E3,1.986E3,2.014E3,9.1E2,1.076E3,9.53E2,1.061E3,4.59E2,4.51E2,6.29E2,4.47E2,7.04E2,2.49E2,7.65E2,2.96E2,4.01E2,5.8E1,1.72E2,2.79E2,5.45E2,8.4E1,1.92E2,2.55E2,4.86E2,2.18E2,1.8E2,6.9E1,5.19E2,2.46E2,2.23E2,7.3E1],"tree_param":{"num_deleted":"0","num_feature":"9","num_nodes":"31","size_leaf_vector":"1"}},{"base_weights":[1.6875282E-3,-2.6087847E1,2.3302086E1,-3.4165314E1,-2.7804613E0,9.450946E0,3.70139E1,-5.334236E1,-2.5074196E1,-2.0012993E1,8.121642E0,1.7312989E0,3.1500738E1,4.406478E1,1.4527133E1,-2.2999573E0,-3.3648095E0,-8.323293E-1,-2.0321596E0,1.2211918E0,-1.1315972E0,7.242368E-2,8.108789E-1,4.4398886E-1,-7.307677E-1,1.7654536E0,9.976079E-1,2.5541284E0,1.4786674E0,2.80451E-1,1.1206398E0],"categories":[],"categories_nodes":[],"categories_segments":[],"categories_sizes":[],"default_left":[0,0,0,0,0,0,0,0,0,0,0,0,0,0,0,0,0,0,0,0,0,0,0,0,0,0,0,0,0,0,0],"id":26,"left_children":[1,3,5,7,9,11,13,15,17,19,21,23,25,27,29,-1,-1,-1,-1,-1,-1,-1,-1,-1,-1,-1,-1,-1,-1,-1,-1],"loss_changes":[2.432802E6,3.5534888E5,4.0115012E5,2.4308812E5,9.165564E4,1.7918356E5,1.6774162E5,4.3014125E4,1.24366E5,2.2548172E4,1.6130146E4,9.1392516E4,1.130225E4,8.0661125E4,1.7807219E4,0E0,0E0,0E0,0E0,0E0,0E0,0E0,0E0,0E0,0E0,0E0,0E0,0E0,0E0,0E0,0E0],"parents":[2147483647,0,0,1,1,2,2,3,3,4,4,5,5,6,6,7,7,8,8,9,9,10,10,11,11,12,12,13,13,14,14],"right_children":[2,4,6,8,10,12,14,16,18,20,22,24,26,28,30,-1,-1,-1,-1,-1,-1,-1,-1,-1,-1,-1,-1,-1,-1,-1,-1],"split_conditions":[6.3E1,1E0,8.1E1,4.1E1,4.2E1,1E0,1E0,1E0,1E0,1.5556226E0,5.4E1,1E0,2.071555E0,1E0,9E1,-2.2999573E0,-3.3648095E0,-8.323293E-1,-2.0321596E0,1.2211918E0,-1.1315972E0,7.242368E-2,8.108789E-1,4.4398886E-1,-7.307677E-1,1.7654536E0,9.976079E-1,2.5541284E0,1.4786674E0,2.80451E-1,1.1206398E0],"split_indices":[4,5,4,4,4,5,6,6,6,2,4,6,2,7,4,0,0,0,0,0,0,0,0,0,0,0,0,0,0,0,0],"split_type":[0,0,0,0,0,0,0,0,0,0,0,0,0,0,0,0,0,0,0,0,0,0,0,0,0,0,0,0,0,0,0],"sum_hessian":[4E3,1.887E3,2.113E3,1.401E3,4.86E2,1.052E3,1.061E3,4.49E2,9.52E2,1.88E2,2.98E2,7.8E2,2.72E2,8.07E2,2.54E2,2.97E2,1.52E2,6.19E2,3.33E2,1E1,1.78E2,1.64E2,1.34E2,5.43E2,2.37E2,2.03E2,6.9E1,5.42E2,2.65E2,1.2E2,1.34E2],"tree_param":{"num_deleted":"0","num_feature":"9","num_nodes":"31","size_leaf_vector":"1"}},{"base_weights":[1.6914792E-3,-2.8260624E1,1.9523823E1,-3.590582E1,-5.9158626E0,5.362824E0,3.3644444E1,-5.068783E1,-2.7209055E1,-2.8577238E1,8.3772224E-1,-1.9399188E0,2.5755865E1,4.0796383E1,1.1227475E1,-2.1853454E0,-3.1976688E0,-9.637496E-1,-2.0498245E0,7.380417E-1,-1.6894093E0,-3.4390897E-1,4.1801617E-1,2.2358818E-1,-8.566162E-1,9.9426186E-1,1.6147245E0,2.3955863E0,1.315471E0,1.16217755E-1,1.0650231E0],"categories":[],"categories_nodes":[],"categories_segments":[],"categories_sizes":[],"default_left":[0,0,0,0,0,0,0,0,0,0,0,0,0,0,0,0,0,0,0,0,0,0,0,0,0,0,0,0,0,0,0],"id":27,"left_children":[1,3,5,7,9,11,13,15,17,19,21,23,25,27,29,-1,-1,-1,-1,-1,-1,-1,-1,-1,-1,-1,-1,-1,-1,-1,-1],"loss_changes":[2.208066E6,2.7909475E5,4.7313E5,1.5520162E5,6.3996965E4,1.7622839E5,1.8952675E5,3.8877375E4,8.3331E4,2.2178656E4,1.88056E4,8.501715E4,1.1334203E4,9.1305E4,2.5778617E4,0E0,0E0,0E0,0E0,0E0,0E0,0E0,0E0,0E0,0E0,0E0,0E0,0E0,0E0,0E0,0E0],"parents":[2147483647,0,0,1,1,2,2,3,3,4,4,5,5,6,6,7,7,8,8,9,9,10,10,11,11,12,12,13,13,14,14],"right_children":[2,4,6,8,10,12,14,16,18,20,22,24,26,28,30,-1,-1,-1,-1,-1,-1,-1,-1,-1,-1,-1,-1,-1,-1,-1,-1],"split_conditions":[5.9E1,1E0,7.9E1,4.1E1,3.6E1,1E0,1E0,1E0,1E0,1.5575857E0,4.7E1,1E0,6.9E1,1E0,9E1,-2.1853454E0,-3.1976688E0,-9.637496E-1,-2.0498245E0,7.380417E-1,-1.6894093E0,-3.4390897E-1,4.1801617E-1,2.2358818E-1,-8.566162E-1,9.9426186E-1,1.6147245E0,2.3955863E0,1.315471E0,1.16217755E-1,1.0650231E0],"split_indices":[4,5,4,4,4,5,6,6,6,2,4,6,4,7,4,0,0,0,0,0,0,0,0,0,0,0,0,0,0,0,0],"split_type":[0,0,0,0,0,0,0,0,0,0,0,0,0,0,0,0,0,0,0,0,0,0,0,0,0,0,0,0,0,0,0],"sum_hessian":[4E3,1.634E3,2.366E3,1.217E3,4.17E2,1.182E3,1.184E3,4.49E2,7.68E2,9.5E1,3.22E2,8.71E2,3.11E2,8.97E2,2.87E2,2.97E2,1.52E2,4.89E2,2.79E2,1E1,8.5E1,1.59E2,1.63E2,6.13E2,2.58E2,1.66E2,1.45E2,6E2,2.97E2,1.53E2,1.34E2],"tree_param":{"num_deleted":"0","num_feature":"9","num_nodes":"31","size_leaf_vector":"1"}},{"base_weights":[1.004174E-3,-1.980266E1,2.52026E1,-3.385733E1,-6.487213E0,1.7996819E1,4.484297E1,-4.1256844E1,-1.2304252E1,5.1893955E-1,-2.8620436E1,8.887585E0,3.1643446E1,3.5739082E1,5.852676E1,-1.7271899E0,-2.6796083E0,-1.3579137E0,-2.2648548E-1,-3.3184597E-1,6.968703E-1,-1.0367086E0,-1.9458519E0,6.660223E-2,1.1753544E0,1.9182198E0,8.7465584E-1,2.7997084E0,1.6792202E0,2.5453875E0,3.4736626E0],"categories":[],"categories_nodes":[],"categories_segments":[],"categories_sizes":[],"default_left":[0,0,0,0,0,0,0,0,0,0,0,0,0,0,0,0,0,0,0,0,0,0,0,0,0,0,0,0,0,0,0],"id":28,"left_children":[1,3,5,7,9,11,13,15,17,19,21,23,25,27,29,-1,-1,-1,-1,-1,-1,-1,-1,-1,-1,-1,-1,-1,-1,-1,-1],"loss_changes":[1.9973338E6,4.1917056E5,2.4841712E5,1.7332812E5,1.7865403E5,1.6007906E5,5.6708E4,6.5305625E4,3.2212293E4,8.42066E4,2.1685969E4,8.557383E4,4.8402406E4,1.06014375E4,1.2059375E4,0E0,0E0,0E0,0E0,0E0,0E0,0E0,0E0,0E0,0E0,0E0,0E0,0E0,0E0,0E0,0E0],"parents":[2147483647,0,0,1,1,2,2,3,3,4,4,5,5,6,6,7,7,8,8,9,9,10,10,11,11,12,12,13,13,14,14],"right_children":[2,4,6,8,10,12,14,16,18,20,22,24,26,28,30,-1,-1,-1,-1,-1,-1,-1,-1,-1,-1,-1,-1,-1,-1,-1,-1],"split_conditions":[6.9E1,4.9E1,1E0,1E0,1E0,8.7E1,8.8E1,1E0,3.6E1,1E0,1.6464634E0,1E0,1E0,1.9797493E0,9.5E1,-1.7271899E0,-2.6796083E0,-1.3579137E0,-2.2648548E-1,-3.3184597E-1,6.968703E-1,-1.0367086E0,-1.9458519E0,6.660223E-2,1.1753544E0,1.9182198E0,8.7465584E-1,2.7997084E0,1.6792202E0,2.5453875E0,3.4736626E0],"split_indices":[4,4,5,5,6,4,4,6,4,5,2,8,6,2,4,0,0,0,0,0,0,0,0,0,0,0,0,0,0,0,0],"split_type":[0,0,0,0,0,0,0,0,0,0,0,0,0,0,0,0,0,0,0,0,0,0,0,0,0,0,0,0,0,0,0],"sum_hessian":[4E3,2.24E3,1.76E3,1.089E3,1.151E3,1.289E3,4.71E2,8.1E2,2.79E2,8.75E2,2.76E2,7.74E2,5.15E2,2.85E2,1.86E2,5.27E2,2.83E2,9.5E1,1.84E2,5.71E2,3.04E2,1.58E2,1.18E2,5.11E2,2.63E2,3.48E2,1.67E2,2.5E1,2.6E2,1.13E2,7.3E1],"tree_param":{"num_deleted":"0","num_feature":"9","num_nodes":"31","size_leaf_vector":"1"}},{"base_weights":[2.4380235E-3,-2.5621855E1,1.770236E1,-3.252559E1,-5.4439335E0,6.128244E0,3.1919022E1,-4.612035E1,-2.4527973E1,-2.5814508E1,6.273334E-1,1.2130498E1,-1.4756743E1,2.505366E1,4.951817E1,-1.9903749E0,-2.9057262E0,-8.66354E-1,-1.8520968E0,7.6621777E-1,-1.5388144E0,-3.1556854E-1,3.6964878E-1,9.164759E-1,-4.2541515E-2,-5.347292E-1,-1.7341741E0,1.5604519E0,6.298191E-1,2.1564956E0,3.2100086E0],"categories":[],"categories_nodes":[],"categories_segments":[],"categories_sizes":[],"default_left":[0,0,0,0,0,0,0,0,0,0,0,0,0,0,0,0,0,0,0,0,0,0,0,0,0,0,0,0,0,0,0],"id":29,"left_children":[1,3,5,7,9,11,13,15,17,19,21,23,25,27,29,-1,-1,-1,-1,-1,-1,-1,-1,-1,-1,-1,-1,-1,-1,-1,-1],"loss_changes":[1.8150991E6,2.2758338E5,3.8928312E5,1.3129662E5,5.1712426E4,1.6389525E5,1.27075E5,3.1759438E4,6.865406E4,2.0067336E4,1.5209825E4,8.169419E4,2.3265191E4,5.8343156E4,2.5087438E4,0E0,0E0,0E0,0E0,0E0,0E0,0E0,0E0,0E0,0E0,0E0,0E0,0E0,0E0,0E0,0E0],"parents":[2147483647,0,0,1,1,2,2,3,3,4,4,5,5,6,6,7,7,8,8,9,9,10,10,11,11,12,12,13,13,14,14],"right_children":[2,4,6,8,10,12,14,16,18,20,22,24,26,28,30,-1,-1,-1,-1,-1,-1,-1,-1,-1,-1,-1,-1,-1,-1,-1,-1],"split_conditions":[5.9E1,1E0,8.1E1,4.1E1,3.6E1,1E0,1E0,1E0,1E0,1.5575857E0,4.7E1,1E0,1.8408461E0,1E0,9.4E1,-1.9903749E0,-2.9057262E0,-8.66354E-1,-1.8520968E0,7.6621777E-1,-1.5388144E0,-3.1556854E-1,3.6964878E-1,9.164759E-1,-4.2541515E-2,-5.347292E-1,-1.7341741E0,1.5604519E0,6.298191E-1,2.1564956E0,3.2100086E0],"split_indices":[4,5,4,4,4,6,5,6,6,2,4,7,2,6,4,0,0,0,0,0,0,0,0,0,0,0,0,0,0,0,0],"split_type":[0,0,0,0,0,0,0,0,0,0,0,0,0,0,0,0,0,0,0,0,0,0,0,0,0,0,0,0,0,0,0],"sum_hessian":[4E3,1.634E3,2.366E3,1.217E3,4.17E2,1.305E3,1.061E3,4.49E2,7.68E2,9.5E1,3.22E2,1.014E3,2.91E2,7.65E2,2.96E2,2.97E2,1.52E2,4.89E2,2.79E2,1E1,8.5E1,1.59E2,1.63E2,6.86E2,3.28E2,2.43E2,4.8E1,5.11E2,2.54E2,2.09E2,8.7E1],"tree_param":{"num_deleted":"0","num_feature":"9","num_nodes":"31","size_leaf_vector":"1"}},{"base_weights":[1.7781619E-3,-1.798648E1,2.2893139E1,-3.066649E1,-5.973288E0,1.6346584E1,4.0736702E1,-3.738105E1,-1.1108731E1,3.532686E-1,-2.5959173E1,9.420052E0,3.1623552E1,3.257759E1,5.29975E1,-2.5985663E0,-1.6081759E0,-1.6018502E0,-3.2099077E-1,-3.0825612E-1,6.2883824E-1,-9.114038E-1,-1.8035411E0,1.261914E-1,1.1114355E0,1.899519E0,9.3749887E-1,2.161225E0,1.4362859E0,2.3058856E0,3.143996E0],"categories":[],"categories_nodes":[],"categories_segments":[],"categories_sizes":[],"default_left":[0,0,0,0,0,0,0,0,0,0,0,0,0,0,0,0,0,0,0,0,0,0,0,0,0,0,0,0,0,0,0],"id":30,"left_children":[1,3,5,7,9,11,13,15,17,19,21,23,25,27,29,-1,-1,-1,-1,-1,-1,-1,-1,-1,-1,-1,-1,-1,-1,-1,-1],"loss_changes":[1.6479264E6,3.4118256E5,2.0504344E5,1.4272538E5,1.4567017E5,1.3620531E5,4.5491E4,6.0066E4,2.727098E4,6.9875055E4,2.0996719E4,7.847049E4,3.2237094E4,1.0487375E4,9.8140625E3,0E0,0E0,0E0,0E0,0E0,0E0,0E0,0E0,0E0,0E0,0E0,0E0,0E0,0E0,0E0,0E0],"parents":[2147483647,0,0,1,1,2,2,3,3,4,4,5,5,6,6,7,7,8,8,9,9,10,10,11,11,12,12,13,13,14,14],"right_children":[2,4,6,8,10,12,14,16,18,20,22,24,26,28,30,-1,-1,-1,-1,-1,-1,-1,-1,-1,-1,-1,-1,-1,-1,-1,-1],"split_conditions":[6.9E1,4.9E1,1E0,1E0,1E0,9E1,8.8E1,3.5E1,3.3E1,1E0,1.6464634E0,1E0,1E0,2.0290096E0,9.5E1,-2.5985663E0,-1.6081759E0,-1.6018502E0,-3.2099077E-1,-3.0825612E-1,6.2883824E-1,-9.114038E-1,-1.8035411E0,1.261914E-1,1.1114355E0,1.899519E0,9.3749887E-1,2.161225E0,1.4362859E0,2.3058856E0,3.143996E0],"split_indices":[4,4,5,5,6,4,4,4,4,5,2,8,6,2,4,0,0,0,0,0,0,0,0,0,0,0,0,0,0,0,0],"split_type":[0,0,0,0,0,0,0,0,0,0,0,0,0,0,0,0,0,0,0,0,0,0,0,0,0,0,0,0,0,0,0],"sum_hessian":[4E3,2.24E3,1.76E3,1.089E3,1.151E3,1.289E3,4.71E2,8.1E2,2.79E2,8.75E2,2.76E2,8.88E2,4.01E2,2.85E2,1.86E2,2.11E2,5.99E2,5E1,2.29E2,5.71E2,3.04E2,1.58E2,1.18E2,5.78E2,3.1E2,2.67E2,1.34E2,7.3E1,2.12E2,1.13E2,7.3E1],"tree_param":{"num_deleted":"0","num_feature":"9","num_nodes":"31","size_leaf_vector":"1"}},{"base_weights":[2.8368419E-3,-2.3230574E1,1.6051262E1,-2.94633E1,-5.013605E0,4.306546E0,2.7762611E1,-4.175621E1,-2.2231478E1,-2.3547075E1,5.103164E-1,-1.7329705E0,2.1172419E1,3.368486E1,9.200311E0,-1.7861245E0,-2.6617627E0,-7.772343E-1,-1.6926984E0,7.9255694E-1,-1.4156289E0,-2.8393912E-1,3.272675E-1,1.7524149E-1,-7.071652E-1,1.1748523E0,4.2607155E-1,1.9863232E0,1.0693626E0,7.924273E-2,8.909711E-1],"categories":[],"categories_nodes":[],"categories_segments":[],"categories_sizes":[],"default_left":[0,0,0,0,0,0,0,0,0,0,0,0,0,0,0,0,0,0,0,0,0,0,0,0,0,0,0,0,0,0,0],"id":31,"left_children":[1,3,5,7,9,11,13,15,17,19,21,23,25,27,29,-1,-1,-1,-1,-1,-1,-1,-1,-1,-1,-1,-1,-1,-1,-1,-1],"loss_changes":[1.4921845E6,1.8549262E5,3.2545294E5,1.07352E5,4.280578E4,1.205391E5,1.2995775E5,2.9265938E4,5.923825E4,1.8473012E4,1.2101679E4,5.6732055E4,8.975328E3,6.5869375E4,1.8875635E4,0E0,0E0,0E0,0E0,0E0,0E0,0E0,0E0,0E0,0E0,0E0,0E0,0E0,0E0,0E0,0E0],"parents":[2147483647,0,0,1,1,2,2,3,3,4,4,5,5,6,6,7,7,8,8,9,9,10,10,11,11,12,12,13,13,14,14],"right_children":[2,4,6,8,10,12,14,16,18,20,22,24,26,28,30,-1,-1,-1,-1,-1,-1,-1,-1,-1,-1,-1,-1,-1,-1,-1,-1],"split_conditions":[5.9E1,1E0,7.9E1,4.1E1,3.6E1,1E0,1E0,1E0,1E0,1.5575857E0,4.7E1,1E0,2.071555E0,1E0,9E1,-1.7861245E0,-2.6617627E0,-7.772343E-1,-1.6926984E0,7.9255694E-1,-1.4156289E0,-2.8393912E-1,3.272675E-1,1.7524149E-1,-7.071652E-1,1.1748523E0,4.2607155E-1,1.9863232E0,1.0693626E0,7.924273E-2,8.909711E-1],"split_indices":[4,5,4,4,4,5,6,6,6,2,4,6,2,7,4,0,0,0,0,0,0,0,0,0,0,0,0,0,0,0,0],"split_type":[0,0,0,0,0,0,0,0,0,0,0,0,0,0,0,0,0,0,0,0,0,0,0,0,0,0,0,0,0,0,0],"sum_hessian":[4E3,1.634E3,2.366E3,1.217E3,4.17E2,1.182E3,1.184E3,4.49E2,7.68E2,9.5E1,3.22E2,8.71E2,3.11E2,8.97E2,2.87E2,2.97E2,1.52E2,4.89E2,2.79E2,1E1,8.5E1,1.59E2,1.63E2,6.13E2,2.58E2,2.62E2,4.9E1,6E2,2.97E2,1.53E2,1.34E2],"tree_param":{"num_deleted":"0","num_feature":"9","num_nodes":"31","size_leaf_vector":"1"}},{"base_weights":[2.0918348E-3,-1.631724E1,2.076962E1,-2.7776459E1,-5.4605856E0,1.4792732E1,3.706076E1,-3.3870354E1,-1.002672E1,2.3087245E-1,-2.3439852E1,8.4532585E0,2.8775318E1,2.9516369E1,4.840106E1,-1.9701296E0,-1.1096647E0,-1.4712548E0,-2.8408736E-1,-2.8005302E-1,5.5836904E-1,-7.9565424E-1,-1.6649827E0,1.109699E-1,1.0015942E0,1.7316128E0,8.4675294E-1,2.690809E0,1.3890318E0,2.0931563E0,2.890947E0],"categories":[],"categories_nodes":[],"categories_segments":[],"categories_sizes":[],"default_left":[0,0,0,0,0,0,0,0,0,0,0,0,0,0,0,0,0,0,0,0,0,0,0,0,0,0,0,0,0,0,0],"id":32,"left_children":[1,3,5,7,9,11,13,15,17,19,21,23,25,27,29,-1,-1,-1,-1,-1,-1,-1,-1,-1,-1,-1,-1,-1,-1,-1,-1],"loss_changes":[1.3563266E6,2.7864838E5,1.7092094E5,1.1756031E5,1.1788755E5,1.1410522E5,3.8953688E4,5.1516312E4,2.3432736E4,5.5934688E4,2.0026953E4,6.412315E4,2.7291281E4,1.0567891E4,9.09375E3,0E0,0E0,0E0,0E0,0E0,0E0,0E0,0E0,0E0,0E0,0E0,0E0,0E0,0E0,0E0,0E0],"parents":[2147483647,0,0,1,1,2,2,3,3,4,4,5,5,6,6,7,7,8,8,9,9,10,10,11,11,12,12,13,13,14,14],"right_children":[2,4,6,8,10,12,14,16,18,20,22,24,26,28,30,-1,-1,-1,-1,-1,-1,-1,-1,-1,-1,-1,-1,-1,-1,-1,-1],"split_conditions":[6.9E1,4.9E1,1E0,1E0,1E0,9E1,8.8E1,1E0,3.3E1,1E0,1.6464634E0,1E0,1E0,1.9592826E0,9.5E1,-1.9701296E0,-1.1096647E0,-1.4712548E0,-2.8408736E-1,-2.8005302E-1,5.5836904E-1,-7.9565424E-1,-1.6649827E0,1.109699E-1,1.0015942E0,1.7316128E0,8.4675294E-1,2.690809E0,1.3890318E0,2.0931563E0,2.890947E0],"split_indices":[4,4,5,5,6,4,4,8,4,5,2,8,6,2,4,0,0,0,0,0,0,0,0,0,0,0,0,0,0,0,0],"split_type":[0,0,0,0,0,0,0,0,0,0,0,0,0,0,0,0,0,0,0,0,0,0,0,0,0,0,0,0,0,0,0],"sum_hessian":[4E3,2.24E3,1.76E3,1.089E3,1.151E3,1.289E3,4.71E2,8.1E2,2.79E2,8.75E2,2.76E2,8.88E2,4.01E2,2.85E2,1.86E2,5.48E2,2.62E2,5E1,2.29E2,5.71E2,3.04E2,1.58E2,1.18E2,5.78E2,3.1E2,2.67E2,1.34E2,1.7E1,2.68E2,1.13E2,7.3E1],"tree_param":{"num_deleted":"0","num_feature":"9","num_nodes":"31","size_leaf_vector":"1"}},{"base_weights":[3.4210903E-3,-1.8553293E1,1.6576303E1,-1.2758882E1,-3.5242603E1,9.011531E0,2.9688005E1,-2.6780996E1,-6.4299545E0,-6.029497E1,-3.0811247E1,3.4252832E0,2.4834768E1,3.4916054E1,1.2882552E1,-1.6490221E0,-8.0459684E-1,-6.02308E-1,2.333566E-1,-2.3544698E0,-3.4303174E0,-1.9110228E0,-1.2401085E0,-1.1446778E-1,6.8735784E-1,9.3183786E-1,1.5796292E0,1.994186E0,1.2375946E0,8.9312935E-1,-4.603964E-2],"categories":[],"categories_nodes":[],"categories_segments":[],"categories_sizes":[],"default_left":[0,0,0,0,0,0,0,0,0,0,0,0,0,0,0,0,0,0,0,0,0,0,0,0,0,0,0,0,0,0,0],"id":33,"left_children":[1,3,5,7,9,11,13,15,17,19,21,23,25,27,29,-1,-1,-1,-1,-1,-1,-1,-1,-1,-1,-1,-1,-1,-1,-1,-1],"loss_changes":[1.230768E6,1.8212894E5,2.0941388E5,1.2433694E5,5.2096E4,1.185377E5,6.746581E4,2.8361375E4,6.038539E4,4.6718438E3,1.7528906E4,5.860435E4,1.4070953E4,2.8752688E4,1.2733559E4,0E0,0E0,0E0,0E0,0E0,0E0,0E0,0E0,0E0,0E0,0E0,0E0,0E0,0E0,0E0,0E0],"parents":[2147483647,0,0,1,1,2,2,3,3,4,4,5,5,6,6,7,7,8,8,9,9,10,10,11,11,12,12,13,13,14,14],"right_children":[2,4,6,8,10,12,14,16,18,20,22,24,26,28,30,-1,-1,-1,-1,-1,-1,-1,-1,-1,-1,-1,-1,-1,-1,-1,-1],"split_conditions":[6.3E1,1E0,8.6E1,4E1,3.6E1,1E0,1E0,1E0,1E0,7.82E2,4.7E1,1E0,7.5E1,1E0,2.0169268E0,-1.6490221E0,-8.0459684E-1,-6.02308E-1,2.333566E-1,-2.3544698E0,-3.4303174E0,-1.9110228E0,-1.2401085E0,-1.1446778E-1,6.8735784E-1,9.3183786E-1,1.5796292E0,1.994186E0,1.2375946E0,8.9312935E-1,-4.603964E-2],"split_indices":[4,6,4,4,4,5,6,5,5,1,4,8,4,7,2,0,0,0,0,0,0,0,0,0,0,0,0,0,0,0,0],"split_type":[0,0,0,0,0,0,0,0,0,0,0,0,0,0,0,0,0,0,0,0,0,0,0,0,0,0,0,0,0,0,0],"sum_hessian":[4E3,1.887E3,2.113E3,1.402E3,4.85E2,1.341E3,7.72E2,4.35E2,9.67E2,7.1E1,4.14E2,9.92E2,3.49E2,5.88E2,1.84E2,2.74E2,1.61E2,6.42E2,3.25E2,3E1,4.1E1,1.83E2,2.31E2,6.39E2,3.53E2,1.84E2,1.65E2,3.93E2,1.95E2,1.35E2,4.9E1],"tree_param":{"num_deleted":"0","num_feature":"9","num_nodes":"31","size_leaf_vector":"1"}},{"base_weights":[2.0977594E-3,-2.0656464E1,1.3506991E1,-2.614014E1,-4.813385E0,3.394148E0,2.4043673E1,-4.364361E1,-2.2263714E1,-2.0680563E1,6.8603806E-2,8.201641E0,-1.3125467E1,2.9187687E1,7.920864E0,-1.8771333E0,-2.889922E0,-8.3191484E-1,-1.602038E0,7.6061785E-1,-1.2752249E0,1.673553E-1,-5.896434E-1,1.6261716E-1,8.9835864E-1,-5.041112E-1,-1.7379093E0,1.7188396E0,9.312234E-1,7.928145E-2,8.0267906E-1],"categories":[],"categories_nodes":[],"categories_segments":[],"categories_sizes":[],"default_left":[0,0,0,0,0,0,0,0,0,0,0,0,0,0,0,0,0,0,0,0,0,0,0,0,0,0,0,0,0,0,0],"id":34,"left_children":[1,3,5,7,9,11,13,15,17,19,21,23,25,27,29,-1,-1,-1,-1,-1,-1,-1,-1,-1,-1,-1,-1,-1,-1,-1,-1],"loss_changes":[1.1165248E6,1.3731569E5,2.5778338E5,7.875319E4,3.160648E4,9.826822E4,9.804794E4,1.61379375E4,5.2486844E4,1.7009914E4,1.2211373E4,4.6244125E4,1.8017145E4,4.8582375E4,1.4813074E4,0E0,0E0,0E0,0E0,0E0,0E0,0E0,0E0,0E0,0E0,0E0,0E0,0E0,0E0,0E0,0E0],"parents":[2147483647,0,0,1,1,2,2,3,3,4,4,5,5,6,6,7,7,8,8,9,9,10,10,11,11,12,12,13,13,14,14],"right_children":[2,4,6,8,10,12,14,16,18,20,22,24,26,28,30,-1,-1,-1,-1,-1,-1,-1,-1,-1,-1,-1,-1,-1,-1,-1,-1],"split_conditions":[5.8E1,1E0,7.9E1,3.5E1,3.6E1,1E0,1E0,1E0,1E0,1.5644448E0,1.8317475E0,1E0,1.8408461E0,1E0,9.1E1,-1.8771333E0,-2.889922E0,-8.3191484E-1,-1.602038E0,7.6061785E-1,-1.2752249E0,1.673553E-1,-5.896434E-1,1.6261716E-1,8.9835864E-1,-5.041112E-1,-1.7379093E0,1.7188396E0,9.312234E-1,7.928145E-2,8.0267906E-1],"split_indices":[4,5,4,4,4,6,6,6,6,2,2,5,2,7,4,0,0,0,0,0,0,0,0,0,0,0,0,0,0,0,0],"split_type":[0,0,0,0,0,0,0,0,0,0,0,0,0,0,0,0,0,0,0,0,0,0,0,0,0,0,0,0,0,0,0],"sum_hessian":[4E3,1.581E3,2.419E3,1.174E3,4.07E2,1.235E3,1.184E3,2.11E2,9.63E2,9.5E1,3.12E2,9.57E2,2.78E2,8.97E2,2.87E2,1.5E2,6.1E1,6.13E2,3.5E2,1.1E1,8.4E1,2.45E2,6.7E1,6.36E2,3.21E2,2.45E2,3.3E1,6E2,2.97E2,1.62E2,1.25E2],"tree_param":{"num_deleted":"0","num_feature":"9","num_nodes":"31","size_leaf_vector":"1"}},{"base_weights":[5.5021455E-4,-1.4126807E1,1.7978636E1,-2.408967E1,-4.687877E0,1.279248E1,3.211457E1,-2.9309734E1,-8.884094E0,2.6295E-1,-2.032772E1,7.252756E0,2.5011442E1,2.7504524E1,4.7772797E1,-2.0741956E0,-1.2479671E0,-1.3131496E0,-2.4959432E-1,-2.3838268E-1,4.8482656E-1,-6.399142E-1,-1.510862E0,9.590532E-2,8.580573E-1,1.503611E0,7.389796E-1,2.4755197E0,1.3147105E0,9.107531E-1,2.4682055E0],"categories":[],"categories_nodes":[],"categories_segments":[],"categories_sizes":[],"default_left":[0,0,0,0,0,0,0,0,0,0,0,0,0,0,0,0,0,0,0,0,0,0,0,0,0,0,0,0,0,0,0],"id":35,"left_children":[1,3,5,7,9,11,13,15,17,19,21,23,25,27,29,-1,-1,-1,-1,-1,-1,-1,-1,-1,-1,-1,-1,-1,-1,-1,-1],"loss_changes":[1.0164393E6,2.10628E5,1.28690125E5,8.625725E4,8.920491E4,8.71383E4,3.2757406E4,4.1917188E4,1.8808734E4,4.1618215E4,2.0239375E4,4.695766E4,2.0371547E4,8.472844E3,4.0865938E3,0E0,0E0,0E0,0E0,0E0,0E0,0E0,0E0,0E0,0E0,0E0,0E0,0E0,0E0,0E0,0E0],"parents":[2147483647,0,0,1,1,2,2,3,3,4,4,5,5,6,6,7,7,8,8,9,9,10,10,11,11,12,12,13,13,14,14],"right_children":[2,4,6,8,10,12,14,16,18,20,22,24,26,28,30,-1,-1,-1,-1,-1,-1,-1,-1,-1,-1,-1,-1,-1,-1,-1,-1],"split_conditions":[6.9E1,4.9E1,1E0,1E0,1E0,9E1,9.3E1,3.5E1,3.3E1,1E0,1.6464634E0,1E0,1E0,1.9592826E0,1.16747E5,-2.0741956E0,-1.2479671E0,-1.3131496E0,-2.4959432E-1,-2.3838268E-1,4.8482656E-1,-6.399142E-1,-1.510862E0,9.590532E-2,8.580573E-1,1.503611E0,7.389796E-1,2.4755197E0,1.3147105E0,9.107531E-1,2.4682055E0],"split_indices":[4,4,5,5,6,4,4,4,4,5,2,8,6,2,0,0,0,0,0,0,0,0,0,0,0,0,0,0,0,0,0],"split_type":[0,0,0,0,0,0,0,0,0,0,0,0,0,0,0,0,0,0,0,0,0,0,0,0,0,0,0,0,0,0,0],"sum_hessian":[4E3,2.24E3,1.76E3,1.089E3,1.151E3,1.289E3,4.71E2,8.1E2,2.79E2,8.75E2,2.76E2,8.88E2,4.01E2,3.66E2,1.05E2,2.11E2,5.99E2,5E1,2.29E2,5.71E2,3.04E2,1.58E2,1.18E2,5.78E2,3.1E2,2.67E2,1.34E2,1.7E1,3.49E2,6E0,9.9E1],"tree_param":{"num_deleted":"0","num_feature":"9","num_nodes":"31","size_leaf_vector":"1"}},{"base_weights":[1.4142296E-3,-1.8740114E1,1.2253107E1,-1.3715892E1,-3.297464E1,2.619839E0,2.1402988E1,-3.129179E1,-1.0365223E1,-5.2759026E1,-2.870059E1,-1.9752921E0,1.569321E1,2.6322624E1,6.0193434E0,-1.8242226E0,-1.0834049E0,-7.656843E-1,-4.874154E-2,-2.0173938E0,-3.0331736E0,-1.9212105E0,-1.2075555E0,1.1106658E-1,-5.8139956E-1,8.6610764E-1,-6.5568066E-1,1.5579253E0,8.197177E-1,-4.274951E-1,4.8334417E-1],"categories":[],"categories_nodes":[],"categories_segments":[],"categories_sizes":[],"default_left":[0,0,0,0,0,0,0,0,0,0,0,0,0,0,0,0,0,0,0,0,0,0,0,0,0,0,0,0,0,0,0],"id":36,"left_children":[1,3,5,7,9,11,13,15,17,19,21,23,25,27,29,-1,-1,-1,-1,-1,-1,-1,-1,-1,-1,-1,-1,-1,-1,-1,-1],"loss_changes":[9.18921E5,1.1268825E5,2.132506E5,6.863705E4,3.332425E4,7.091814E4,9.376281E4,8.554297E3,4.575604E4,4.615797E3,1.4156969E4,3.5430477E4,1.4633047E4,4.4620438E4,1.6131506E4,0E0,0E0,0E0,0E0,0E0,0E0,0E0,0E0,0E0,0E0,0E0,0E0,0E0,0E0,0E0,0E0],"parents":[2147483647,0,0,1,1,2,2,3,3,4,4,5,5,6,6,7,7,8,8,9,9,10,10,11,11,12,12,13,13,14,14],"right_children":[2,4,6,8,10,12,14,16,18,20,22,24,26,28,30,-1,-1,-1,-1,-1,-1,-1,-1,-1,-1,-1,-1,-1,-1,-1,-1],"split_conditions":[5.8E1,1E0,7.8E1,3.4E1,3.6E1,1E0,1E0,1E0,1E0,7.82E2,6.32561E5,1E0,2.110155E0,1E0,8.2E1,-1.8242226E0,-1.0834049E0,-7.656843E-1,-4.874154E-2,-2.0173938E0,-3.0331736E0,-1.9212105E0,-1.2075555E0,1.1106658E-1,-5.8139956E-1,8.6610764E-1,-6.5568066E-1,1.5579253E0,8.197177E-1,-4.274951E-1,4.8334417E-1],"split_indices":[4,6,4,4,4,5,6,5,5,1,0,6,2,7,4,0,0,0,0,0,0,0,0,0,0,0,0,0,0,0,0],"split_type":[0,0,0,0,0,0,0,0,0,0,0,0,0,0,0,0,0,0,0,0,0,0,0,0,0,0,0,0,0,0,0],"sum_hessian":[4E3,1.581E3,2.419E3,1.17E3,4.11E2,1.179E3,1.24E3,1.86E2,9.84E2,7.1E1,3.4E2,8.73E2,3.06E2,9.39E2,3.01E2,1.19E2,6.7E1,6.44E2,3.4E2,3E1,4.1E1,1.06E2,2.34E2,6.09E2,2.64E2,2.9E2,1.6E1,6.3E2,3.09E2,6E1,2.41E2],"tree_param":{"num_deleted":"0","num_feature":"9","num_nodes":"31","size_leaf_vector":"1"}},{"base_weights":[-1.0871363E-3,-1.2813576E1,1.6303734E1,-2.2863918E1,-5.013022E0,1.0951005E1,2.7763866E1,-1.7756174E1,-3.7296276E1,-9.856755E0,8.711402E0,1.52013235E1,-2.841226E0,3.2197914E1,1.3566327E1,-1.4871377E0,-6.782312E-1,-2.5095613E0,-1.6023865E0,-7.178692E-1,-6.895453E-2,1.9063263E0,3.6924154E-1,9.7852814E-1,2.969571E-1,2.8187647E-1,-5.561805E-1,1.8482901E0,1.1634934E0,1.0435538E0,-2.7735934E-2],"categories":[],"categories_nodes":[],"categories_segments":[],"categories_sizes":[],"default_left":[0,0,0,0,0,0,0,0,0,0,0,0,0,0,0,0,0,0,0,0,0,0,0,0,0,0,0,0,0,0,0],"id":37,"left_children":[1,3,5,7,9,11,13,15,17,19,21,23,25,27,29,-1,-1,-1,-1,-1,-1,-1,-1,-1,-1,-1,-1,-1,-1,-1,-1],"loss_changes":[8.360391E5,1.7557588E5,1.0772097E5,7.15065E4,8.404688E4,7.050608E4,3.4816625E4,3.602225E4,1.56498125E4,3.5616812E4,1.2595459E4,3.70745E4,2.0006412E4,1.7273719E4,1.3936922E4,0E0,0E0,0E0,0E0,0E0,0E0,0E0,0E0,0E0,0E0,0E0,0E0,0E0,0E0,0E0,0E0],"parents":[2147483647,0,0,1,1,2,2,3,3,4,4,5,5,6,6,7,7,8,8,9,9,10,10,11,11,12,12,13,13,14,14],"right_children":[2,4,6,8,10,12,14,16,18,20,22,24,26,28,30,-1,-1,-1,-1,-1,-1,-1,-1,-1,-1,-1,-1,-1,-1,-1,-1],"split_conditions":[6.9E1,4.7E1,9E1,1E0,1E0,1E0,1E0,3.4E1,3.6E1,1E0,1.7314572E0,1E0,1.8408461E0,1E0,2.0169268E0,-1.4871377E0,-6.782312E-1,-2.5095613E0,-1.6023865E0,-7.178692E-1,-6.895453E-2,1.9063263E0,3.6924154E-1,9.7852814E-1,2.969571E-1,2.8187647E-1,-5.561805E-1,1.8482901E0,1.1634934E0,1.0435538E0,-2.7735934E-2],"split_indices":[4,4,4,6,5,6,6,4,4,8,2,7,2,7,2,0,0,0,0,0,0,0,0,0,0,0,0,0,0,0,0],"split_type":[0,0,0,0,0,0,0,0,0,0,0,0,0,0,0,0,0,0,0,0,0,0,0,0,0,0,0,0,0,0,0],"sum_hessian":[4E3,2.24E3,1.76E3,9.78E2,1.262E3,1.201E3,5.59E2,7.24E2,2.54E2,9.33E2,3.29E2,9.18E2,2.83E2,4.25E2,1.34E2,1.86E2,5.38E2,7.1E1,1.83E2,6.09E2,3.24E2,1.3E1,3.16E2,6.23E2,2.95E2,1.4E2,1.43E2,2.75E2,1.5E2,8.8E1,4.6E1],"tree_param":{"num_deleted":"0","num_feature":"9","num_nodes":"31","size_leaf_vector":"1"}},{"base_weights":[-9.696615E-4,-1.3852839E1,1.3658419E1,-9.195525E0,-2.7502235E1,8.755016E0,2.6382874E1,-1.9227695E1,-3.1402917E0,-4.3478832E1,-2.2942984E1,4.2840676E0,2.1050606E1,3.0595097E1,1.2895538E1,-7.1927136E-1,-1.4417444E0,-3.6148998E-1,2.6254198E-1,-1.6648315E0,-2.5086222E0,-1.0499048E0,-1.8621138E0,-8.010401E-3,6.106212E-1,7.429694E-1,1.2688138E0,1.3230196E0,2.0060606E0,9.9196273E-1,-2.637868E-2],"categories":[],"categories_nodes":[],"categories_segments":[],"categories_sizes":[],"default_left":[0,0,0,0,0,0,0,0,0,0,0,0,0,0,0,0,0,0,0,0,0,0,0,0,0,0,0,0,0,0,0],"id":38,"left_children":[1,3,5,7,9,11,13,15,17,19,21,23,25,27,29,-1,-1,-1,-1,-1,-1,-1,-1,-1,-1,-1,-1,-1,-1,-1,-1],"loss_changes":[7.572107E5,1.2605975E5,1.2549116E5,9.002761E4,3.5787375E4,7.995045E4,3.1419969E4,2.5543703E4,3.1814209E4,5.894703E3,1.0203141E4,3.7669027E4,1.0014016E4,1.5717531E4,1.2593318E4,0E0,0E0,0E0,0E0,0E0,0E0,0E0,0E0,0E0,0E0,0E0,0E0,0E0,0E0,0E0,0E0],"parents":[2147483647,0,0,1,1,2,2,3,3,4,4,5,5,6,6,7,7,8,8,9,9,10,10,11,11,12,12,13,13,14,14],"right_children":[2,4,6,8,10,12,14,16,18,20,22,24,26,28,30,-1,-1,-1,-1,-1,-1,-1,-1,-1,-1,-1,-1,-1,-1,-1,-1],"split_conditions":[6.5E1,1E0,9E1,4.3E1,3.8E1,1E0,1E0,1E0,1E0,7.82E2,1.6775509E0,1E0,7.5E1,9.7E1,2.0169268E0,-7.1927136E-1,-1.4417444E0,-3.6148998E-1,2.6254198E-1,-1.6648315E0,-2.5086222E0,-1.0499048E0,-1.8621138E0,-8.010401E-3,6.106212E-1,7.429694E-1,1.2688138E0,1.3230196E0,2.0060606E0,9.9196273E-1,-2.637868E-2],"split_indices":[4,6,4,4,4,5,6,7,5,1,2,8,4,4,2,0,0,0,0,0,0,0,0,0,0,0,0,0,0,0,0],"split_type":[0,0,0,0,0,0,0,0,0,0,0,0,0,0,0,0,0,0,0,0,0,0,0,0,0,0,0,0,0,0,0],"sum_hessian":[4E3,1.986E3,2.014E3,1.482E3,5.04E2,1.455E3,5.59E2,5.57E2,9.25E2,1.1E2,3.94E2,1.068E3,3.87E2,4.25E2,1.34E2,3.72E2,1.85E2,6.22E2,3.03E2,4.6E1,6.4E1,3.49E2,4.5E1,6.85E2,3.83E2,1.61E2,2.26E2,2.99E2,1.26E2,8.8E1,4.6E1],"tree_param":{"num_deleted":"0","num_feature":"9","num_nodes":"31","size_leaf_vector":"1"}},{"base_weights":[-1.5328256E-3,-1.625808E1,1.0625682E1,-2.0637434E1,-3.6061246E0,8.2607925E-1,1.7444307E1,-3.446389E1,-1.7575352E1,-1.6133116E1,2.4754056E-1,-3.3156438E0,1.2291131E1,2.1591972E1,4.472924E0,-1.4802305E0,-2.287136E0,-1.0980619E0,-4.213175E-1,9.9740976E-1,-1.0280286E0,6.435234E-1,-1.5563926E-1,-3.9045566E-1,2.3550157E-1,7.346894E-1,-6.761703E-1,8.9324886E-1,1.5777229E0,-2.5405806E-1,4.3196446E-1],"categories":[],"categories_nodes":[],"categories_segments":[],"categories_sizes":[],"default_left":[0,0,0,0,0,0,0,0,0,0,0,0,0,0,0,0,0,0,0,0,0,0,0,0,0,0,0,0,0,0,0],"id":39,"left_children":[1,3,5,7,9,11,13,15,17,19,21,23,25,27,29,-1,-1,-1,-1,-1,-1,-1,-1,-1,-1,-1,-1,-1,-1,-1,-1],"loss_changes":[6.9139275E5,8.758009E4,1.6168956E5,4.9141062E4,1.9700123E4,4.7240914E4,7.6677375E4,1.0264875E4,3.8496906E4,1.5745994E4,1.3316629E4,2.6398928E4,1.657291E4,3.9574E4,1.3856508E4,0E0,0E0,0E0,0E0,0E0,0E0,0E0,0E0,0E0,0E0,0E0,0E0,0E0,0E0,0E0,0E0],"parents":[2147483647,0,0,1,1,2,2,3,3,4,4,5,5,6,6,7,7,8,8,9,9,10,10,11,11,12,12,13,13,14,14],"right_children":[2,4,6,8,10,12,14,16,18,20,22,24,26,28,30,-1,-1,-1,-1,-1,-1,-1,-1,-1,-1,-1,-1,-1,-1,-1,-1],"split_conditions":[5.8E1,1E0,7.5E1,3.5E1,3.6E1,1E0,1E0,1E0,1E0,1.5575857E0,1.6902734E0,1E0,2.063526E0,9.3E1,8.2E1,-1.4802305E0,-2.287136E0,-1.0980619E0,-4.213175E-1,9.9740976E-1,-1.0280286E0,6.435234E-1,-1.5563926E-1,-3.9045566E-1,2.3550157E-1,7.346894E-1,-6.761703E-1,8.9324886E-1,1.5777229E0,-2.5405806E-1,4.3196446E-1],"split_indices":[4,5,4,4,4,5,6,6,8,2,2,8,2,4,4,0,0,0,0,0,0,0,0,0,0,0,0,0,0,0,0],"split_type":[0,0,0,0,0,0,0,0,0,0,0,0,0,0,0,0,0,0,0,0,0,0,0,0,0,0,0,0,0,0,0],"sum_hessian":[4E3,1.581E3,2.419E3,1.174E3,4.07E2,9.93E2,1.426E3,2.11E2,9.63E2,9.5E1,3.12E2,7.3E2,2.63E2,1.08E3,3.46E2,1.5E2,6.1E1,6.5E2,3.13E2,1E1,8.5E1,6.5E1,2.47E2,4.68E2,2.62E2,2.41E2,2.2E1,7.88E2,2.92E2,1.05E2,2.41E2],"tree_param":{"num_deleted":"0","num_feature":"9","num_nodes":"31","size_leaf_vector":"1"}},{"base_weights":[-2.0263165E-3,-1.5448231E1,1.0095452E1,-1.9610064E1,-3.4247003E0,2.475199E0,1.8035147E1,-3.0231476E1,-1.5966492E1,-2.1060133E1,-9.0282375E-1,6.153388E0,-1.0163441E1,1.3612833E1,2.959702E1,-1.2924589E0,-1.9982051E0,-5.751571E-1,-1.1811904E0,-1.3140441E-1,-1.9341087E0,8.123801E-2,-5.85306E-1,1.254697E-1,6.671525E-1,-3.5702047E-1,-1.5868521E0,4.3704137E-1,9.983736E-1,1.2878581E0,2.1188555E0],"categories":[],"categories_nodes":[],"categories_segments":[],"categories_sizes":[],"default_left":[0,0,0,0,0,0,0,0,0,0,0,0,0,0,0,0,0,0,0,0,0,0,0,0,0,0,0,0,0,0,0],"id":40,"left_children":[1,3,5,7,9,11,13,15,17,19,21,23,25,27,29,-1,-1,-1,-1,-1,-1,-1,-1,-1,-1,-1,-1,-1,-1,-1,-1],"loss_changes":[6.241829E5,7.909597E4,1.4637138E5,4.4989656E4,1.8126535E4,5.752085E4,6.0186375E4,1.17196875E4,2.9701719E4,1.6463658E4,9.794651E3,2.5065242E4,1.7969117E4,2.6419969E4,1.4955594E4,0E0,0E0,0E0,0E0,0E0,0E0,0E0,0E0,0E0,0E0,0E0,0E0,0E0,0E0,0E0,0E0],"parents":[2147483647,0,0,1,1,2,2,3,3,4,4,5,5,6,6,7,7,8,8,9,9,10,10,11,11,12,12,13,13,14,14],"right_children":[2,4,6,8,10,12,14,16,18,20,22,24,26,28,30,-1,-1,-1,-1,-1,-1,-1,-1,-1,-1,-1,-1,-1,-1,-1,-1],"split_conditions":[5.8E1,1E0,7.9E1,3.7E1,3.3E1,1E0,1E0,1E0,1E0,1.6185223E0,1.8317475E0,1E0,1.8408461E0,9.1E1,9.5E1,-1.2924589E0,-1.9982051E0,-5.751571E-1,-1.1811904E0,-1.3140441E-1,-1.9341087E0,8.123801E-2,-5.85306E-1,1.254697E-1,6.671525E-1,-3.5702047E-1,-1.5868521E0,4.3704137E-1,9.983736E-1,1.2878581E0,2.1188555E0],"split_indices":[4,5,4,4,4,6,5,6,6,2,2,5,2,4,4,0,0,0,0,0,0,0,0,0,0,0,0,0,0,0,0],"split_type":[0,0,0,0,0,0,0,0,0,0,0,0,0,0,0,0,0,0,0,0,0,0,0,0,0,0,0,0,0,0,0],"sum_hessian":[4E3,1.581E3,2.419E3,1.174E3,4.07E2,1.235E3,1.184E3,2.98E2,8.76E2,5E1,3.57E2,9.57E2,2.78E2,8.58E2,3.26E2,2.08E2,9E1,5.55E2,3.21E2,2.5E1,2.5E1,2.9E2,6.7E1,6.36E2,3.21E2,2.45E2,3.3E1,4.87E2,3.71E2,2.53E2,7.3E1],"tree_param":{"num_deleted":"0","num_feature":"9","num_nodes":"31","size_leaf_vector":"1"}},{"base_weights":[-2.9005867E-3,-1.0563101E1,1.343572E1,-1.822631E1,-3.3031502E0,9.371915E0,2.4513842E1,-2.2222214E1,-6.5873713E0,4.6376333E-1,-1.5203919E1,5.4758034E0,1.8971792E1,2.118008E1,3.8820477E1,-1.3160213E0,-6.791449E-1,1.3722461E0,-3.9747375E-1,-1.5889193E-1,3.6458695E-1,-3.8023758E-1,-1.2614833E0,6.877373E-2,6.536847E-1,7.718314E-1,1.379142E0,2.1664066E0,1.0019599E0,3.7290132E0,1.7883857E0],"categories":[],"categories_nodes":[],"categories_segments":[],"categories_sizes":[],"default_left":[0,0,0,0,0,0,0,0,0,0,0,0,0,0,0,0,0,0,0,0,0,0,0,0,0,0,0,0,0,0,0],"id":41,"left_children":[1,3,5,7,9,11,13,15,17,19,21,23,25,27,29,-1,-1,-1,-1,-1,-1,-1,-1,-1,-1,-1,-1,-1,-1,-1,-1],"loss_changes":[5.679419E5,1.2461678E5,7.904931E4,5.0547406E4,5.1650254E4,4.8144938E4,2.1689781E4,2.8356531E4,1.3197711E4,2.180471E4,2.0912027E4,2.8612408E4,1.0898453E4,8.860047E3,6.939047E3,0E0,0E0,0E0,0E0,0E0,0E0,0E0,0E0,0E0,0E0,0E0,0E0,0E0,0E0,0E0,0E0],"parents":[2147483647,0,0,1,1,2,2,3,3,4,4,5,5,6,6,7,7,8,8,9,9,10,10,11,11,12,12,13,13,14,14],"right_children":[2,4,6,8,10,12,14,16,18,20,22,24,26,28,30,-1,-1,-1,-1,-1,-1,-1,-1,-1,-1,-1,-1,-1,-1,-1,-1],"split_conditions":[6.9E1,4.9E1,1E0,1E0,1E0,9.1E1,9.4E1,1E0,1.5556226E0,1E0,1.6464634E0,1E0,1E0,1.9592826E0,2.1726213E0,-1.3160213E0,-6.791449E-1,1.3722461E0,-3.9747375E-1,-1.5889193E-1,3.6458695E-1,-3.8023758E-1,-1.2614833E0,6.877373E-2,6.536847E-1,7.718314E-1,1.379142E0,2.1664066E0,1.0019599E0,3.7290132E0,1.7883857E0],"split_indices":[4,4,5,5,6,4,4,8,2,5,2,8,8,2,2,0,0,0,0,0,0,0,0,0,0,0,0,0,0,0,0],"split_type":[0,0,0,0,0,0,0,0,0,0,0,0,0,0,0,0,0,0,0,0,0,0,0,0,0,0,0,0,0,0,0],"sum_hessian":[4E3,2.24E3,1.76E3,1.089E3,1.151E3,1.289E3,4.71E2,8.1E2,2.79E2,8.75E2,2.76E2,9.18E2,3.71E2,3.84E2,8.7E1,5.48E2,2.62E2,1E1,2.69E2,5.71E2,3.04E2,1.58E2,1.18E2,5.97E2,3.21E2,2.65E2,1.06E2,1.7E1,3.67E2,5E0,8.2E1],"tree_param":{"num_deleted":"0","num_feature":"9","num_nodes":"31","size_leaf_vector":"1"}},{"base_weights":[-4.8318418E-4,-9.0143175E0,1.433414E1,-1.731594E1,-2.3931317E0,1.79659E1,2.752291E0,-2.111357E1,-6.2545342E0,1.0852083E0,-1.3559267E1,1.3767894E1,2.5324438E1,-5.3356795E0,7.0522738E0,-1.2503403E0,-6.453171E-1,1.309871E0,-3.776743E-1,2.2218318E-1,-3.033664E-1,3.2662615E-1,-8.121133E-1,8.521345E-1,3.3621463E-1,1.4745743E0,8.770067E-1,3.8297698E-1,-1.3010658E0,5.100143E-1,-2.4686728E-1],"categories":[],"categories_nodes":[],"categories_segments":[],"categories_sizes":[],"default_left":[0,0,0,0,0,0,0,0,0,0,0,0,0,0,0,0,0,0,0,0,0,0,0,0,0,0,0,0,0,0,0],"id":42,"left_children":[1,3,5,7,9,11,13,15,17,19,21,23,25,27,29,-1,-1,-1,-1,-1,-1,-1,-1,-1,-1,-1,-1,-1,-1,-1,-1],"loss_changes":[5.170981E5,1.3501147E5,6.4937125E4,4.565572E4,5.3147312E4,3.5979344E4,1.2905539E4,2.5590875E4,1.2000866E4,2.5105377E4,1.7625633E4,1.7208234E4,1.3301125E4,3.487637E4,9.184281E3,0E0,0E0,0E0,0E0,0E0,0E0,0E0,0E0,0E0,0E0,0E0,0E0,0E0,0E0,0E0,0E0],"parents":[2147483647,0,0,1,1,2,2,3,3,4,4,5,5,6,6,7,7,8,8,9,9,10,10,11,11,12,12,13,13,14,14],"right_children":[2,4,6,8,10,12,14,16,18,20,22,24,26,28,30,-1,-1,-1,-1,-1,-1,-1,-1,-1,-1,-1,-1,-1,-1,-1,-1],"split_conditions":[7.3E1,4.9E1,1E0,1E0,1E0,9E1,8.2E1,1E0,1.5556226E0,1E0,1.5521013E0,1E0,1E0,1.8408461E0,2.0169268E0,-1.2503403E0,-6.453171E-1,1.309871E0,-3.776743E-1,2.2218318E-1,-3.033664E-1,3.2662615E-1,-8.121133E-1,8.521345E-1,3.3621463E-1,1.4745743E0,8.770067E-1,3.8297698E-1,-1.3010658E0,5.100143E-1,-2.4686728E-1],"split_indices":[4,4,6,5,6,4,4,8,2,7,2,7,7,2,2,0,0,0,0,0,0,0,0,0,0,0,0,0,0,0,0],"split_type":[0,0,0,0,0,0,0,0,0,0,0,0,0,0,0,0,0,0,0,0,0,0,0,0,0,0,0,0,0,0,0],"sum_hessian":[4E3,2.456E3,1.544E3,1.089E3,1.367E3,1.175E3,3.69E2,8.1E2,2.79E2,1.043E3,3.24E2,7.5E2,4.25E2,1.28E2,2.41E2,5.48E2,2.62E2,1E1,2.69E2,7.1E2,3.33E2,3.8E1,2.86E2,5.11E2,2.39E2,2.75E2,1.5E2,7.9E1,4.9E1,1.91E2,5E1],"tree_param":{"num_deleted":"0","num_feature":"9","num_nodes":"31","size_leaf_vector":"1"}},{"base_weights":[-1.1400615E-4,-1.3390299E1,8.7533045E0,-9.701047E0,-2.3843512E1,6.420049E-1,1.4397227E1,-2.3590837E1,-7.0542536E0,-3.9002922E1,-2.0572775E1,-2.7631671E0,1.0068288E1,1.7926758E1,3.3602836E0,-1.0690429E0,-2.002103E0,-1.8131602E-1,-7.06688E-1,-1.3958465E0,-2.3128402E0,-1.4924144E0,-8.1309557E-1,-3.260663E-1,1.9745754E-1,6.198732E-1,-7.438224E-1,7.974572E-1,1.6328316E0,1.1985358E0,6.312588E-2],"categories":[],"categories_nodes":[],"categories_segments":[],"categories_sizes":[],"default_left":[0,0,0,0,0,0,0,0,0,0,0,0,0,0,0,0,0,0,0,0,0,0,0,0,0,0,0,0,0,0,0],"id":43,"left_children":[1,3,5,7,9,11,13,15,17,19,21,23,25,27,29,-1,-1,-1,-1,-1,-1,-1,-1,-1,-1,-1,-1,-1,-1,-1,-1],"loss_changes":[4.6907394E5,6.0777812E4,1.10777266E5,4.288353E4,1.9625547E4,3.1933346E4,5.5528906E4,5.9425938E3,2.3852793E4,4.498633E3,1.3149656E4,1.8465928E4,1.5523014E4,3.0968656E4,1.497258E4,0E0,0E0,0E0,0E0,0E0,0E0,0E0,0E0,0E0,0E0,0E0,0E0,0E0,0E0,0E0,0E0],"parents":[2147483647,0,0,1,1,2,2,3,3,4,4,5,5,6,6,7,7,8,8,9,9,10,10,11,11,12,12,13,13,14,14],"right_children":[2,4,6,8,10,12,14,16,18,20,22,24,26,28,30,-1,-1,-1,-1,-1,-1,-1,-1,-1,-1,-1,-1,-1,-1,-1,-1],"split_conditions":[5.8E1,1E0,7.5E1,3.4E1,3.6E1,1E0,1E0,1.6576506E0,1E0,7.82E2,6.32561E5,1E0,2.063526E0,9.7E1,1.792266E0,-1.0690429E0,-2.002103E0,-1.8131602E-1,-7.06688E-1,-1.3958465E0,-2.3128402E0,-1.4924144E0,-8.1309557E-1,-3.260663E-1,1.9745754E-1,6.198732E-1,-7.438224E-1,7.974572E-1,1.6328316E0,1.1985358E0,6.312588E-2],"split_indices":[4,6,4,4,4,5,6,2,7,1,0,8,2,4,2,0,0,0,0,0,0,0,0,0,0,0,0,0,0,0,0],"split_type":[0,0,0,0,0,0,0,0,0,0,0,0,0,0,0,0,0,0,0,0,0,0,0,0,0,0,0,0,0,0,0],"sum_hessian":[4E3,1.581E3,2.419E3,1.17E3,4.11E2,9.93E2,1.426E3,1.86E2,9.84E2,7.1E1,3.4E2,7.3E2,2.63E2,1.08E3,3.46E2,1.66E2,2E1,6.64E2,3.2E2,3E1,4.1E1,1.06E2,2.34E2,4.68E2,2.62E2,2.41E2,2.2E1,9.54E2,1.26E2,3.1E1,3.15E2],"tree_param":{"num_deleted":"0","num_feature":"9","num_nodes":"31","size_leaf_vector":"1"}},{"base_weights":[-1.7452245E-3,-1.2727092E1,8.317057E0,-1.622286E1,-2.6284287E0,3.8978956E0,1.7727741E1,-2.7875244E1,-1.3643474E1,-1.0125579E1,2.299372E0,6.983256E0,-6.3456903E0,1.3972135E1,2.7104465E1,-1.3038472E0,-2.6698573E0,-8.5562843E-1,-3.2038632E-1,1.286818E0,-6.327118E-1,4.4677845E-1,-3.8558325E-1,5.08891E-1,1.5254757E-2,-2.317007E-1,-1.3910333E0,3.941137E-1,8.935055E-1,-1.1515249E-1,1.4331625E0],"categories":[],"categories_nodes":[],"categories_segments":[],"categories_sizes":[],"default_left":[0,0,0,0,0,0,0,0,0,0,0,0,0,0,0,0,0,0,0,0,0,0,0,0,0,0,0,0,0,0,0],"id":44,"left_children":[1,3,5,7,9,11,13,15,17,19,21,23,25,27,29,-1,-1,-1,-1,-1,-1,-1,-1,-1,-1,-1,-1,-1,-1,-1,-1],"loss_changes":[4.2365025E5,5.580603E4,1.00572234E5,3.49355E4,1.5096621E4,5.212961E4,2.6842719E4,8.337531E3,2.4088188E4,1.5016244E4,1.6478404E4,2.702684E4,1.3912711E4,1.3010055E4,1.0150828E4,0E0,0E0,0E0,0E0,0E0,0E0,0E0,0E0,0E0,0E0,0E0,0E0,0E0,0E0,0E0,0E0],"parents":[2147483647,0,0,1,1,2,2,3,3,4,4,5,5,6,6,7,7,8,8,9,9,10,10,11,11,12,12,13,13,14,14],"right_children":[2,4,6,8,10,12,14,16,18,20,22,24,26,28,30,-1,-1,-1,-1,-1,-1,-1,-1,-1,-1,-1,-1,-1,-1,-1,-1],"split_conditions":[5.8E1,1E0,8.6E1,3.5E1,4E1,1E0,1E0,1.600362E0,1E0,1.5556226E0,1.80371E0,1E0,1.9267477E0,8.05846E5,1.38773E5,-1.3038472E0,-2.6698573E0,-8.5562843E-1,-3.2038632E-1,1.286818E0,-6.327118E-1,4.4677845E-1,-3.8558325E-1,5.08891E-1,1.5254757E-2,-2.317007E-1,-1.3910333E0,3.941137E-1,8.935055E-1,-1.1515249E-1,1.4331625E0],"split_indices":[4,5,4,4,4,6,5,2,8,2,2,7,2,0,0,0,0,0,0,0,0,0,0,0,0,0,0,0,0,0,0],"split_type":[0,0,0,0,0,0,0,0,0,0,0,0,0,0,0,0,0,0,0,0,0,0,0,0,0,0,0,0,0,0,0],"sum_hessian":[4E3,1.581E3,2.419E3,1.174E3,4.07E2,1.647E3,7.72E2,2.11E2,9.63E2,1.61E2,2.46E2,1.266E3,3.81E2,5.53E2,2.19E2,1.99E2,1.2E1,6.5E2,3.13E2,1E1,1.51E2,1.48E2,9.8E1,8.56E2,4.1E2,3.54E2,2.7E1,2.17E2,3.36E2,1.1E1,2.08E2],"tree_param":{"num_deleted":"0","num_feature":"9","num_nodes":"31","size_leaf_vector":"1"}},{"base_weights":[-2.3911467E-3,-7.8234377E0,1.2435352E1,-1.5782959E1,-2.5494723E0,8.940498E0,2.183669E1,-1.2067802E1,-2.6283766E1,-5.9045386E0,7.033086E0,5.569491E0,1.5776285E1,1.9066807E1,3.4455254E1,-1.0688714E0,-4.4077712E-1,-1.2333415E0,-3.171604E0,-4.455846E-1,-1.4154889E-2,4.0389463E-1,-1.1702732E0,4.4489756E-1,-7.113149E-2,6.4046025E-1,1.1502475E0,1.1690272E0,5.545476E-1,6.1073893E-1,1.9720558E0],"categories":[],"categories_nodes":[],"categories_segments":[],"categories_sizes":[],"default_left":[0,0,0,0,0,0,0,0,0,0,0,0,0,0,0,0,0,0,0,0,0,0,0,0,0,0,0,0,0,0,0],"id":45,"left_children":[1,3,5,7,9,11,13,15,17,19,21,23,25,27,29,-1,-1,-1,-1,-1,-1,-1,-1,-1,-1,-1,-1,-1,-1,-1,-1],"loss_changes":[3.8929922E5,1.031003E5,5.056778E4,3.787572E4,4.7591555E4,2.5905188E4,1.3952969E4,2.176261E4,1.3752281E4,1.8524848E4,1.2401186E4,1.7630314E4,7.6839844E3,1.1610672E4,7.7239453E3,0E0,0E0,0E0,0E0,0E0,0E0,0E0,0E0,0E0,0E0,0E0,0E0,0E0,0E0,0E0,0E0],"parents":[2147483647,0,0,1,1,2,2,3,3,4,4,5,5,6,6,7,7,8,8,9,9,10,10,11,11,12,12,13,13,14,14],"right_children":[2,4,6,8,10,12,14,16,18,20,22,24,26,28,30,-1,-1,-1,-1,-1,-1,-1,-1,-1,-1,-1,-1,-1,-1,-1,-1],"split_conditions":[7.3E1,4.7E1,1E0,1E0,1E0,9.1E1,9.5E1,3.4E1,1.5789342E0,1E0,2.063526E0,1E0,1E0,2.181451E0,3.92375E5,-1.0688714E0,-4.4077712E-1,-1.2333415E0,-3.171604E0,-4.455846E-1,-1.4154889E-2,4.0389463E-1,-1.1702732E0,4.4489756E-1,-7.113149E-2,6.4046025E-1,1.1502475E0,1.1690272E0,5.545476E-1,6.1073893E-1,1.9720558E0],"split_indices":[4,4,5,6,5,4,4,4,2,8,2,6,8,2,0,0,0,0,0,0,0,0,0,0,0,0,0,0,0,0,0],"split_type":[0,0,0,0,0,0,0,0,0,0,0,0,0,0,0,0,0,0,0,0,0,0,0,0,0,0,0,0,0,0,0],"sum_hessian":[4E3,2.456E3,1.544E3,9.78E2,1.478E3,1.127E3,4.17E2,7.24E2,2.54E2,1.095E3,3.83E2,7.56E2,3.71E2,3.44E2,7.3E1,1.86E2,5.38E2,2.45E2,9E0,7.13E2,3.82E2,3.71E2,1.2E1,5.12E2,2.44E2,2.65E2,1.06E2,2.22E2,1.22E2,1.4E1,5.9E1],"tree_param":{"num_deleted":"0","num_feature":"9","num_nodes":"31","size_leaf_vector":"1"}},{"base_weights":[-2.4379187E-3,-8.315909E0,1.0577059E1,-1.4999859E1,-3.128339E0,7.245075E0,1.9661129E1,-1.1466501E1,-2.4986856E1,-6.3293357E0,5.940931E0,4.101217E0,1.4992281E1,1.7181116E1,3.2767403E1,-1.1059097E0,-4.4397846E-1,-1.1719252E0,-3.0288818E0,-1.7850332E-1,-5.990242E-1,1.7656764E0,2.3124889E-1,4.2638388E-2,5.060657E-1,4.7601706E-1,9.323327E-1,1.0260425E0,4.8481256E-1,5.822388E-1,1.8750969E0],"categories":[],"categories_nodes":[],"categories_segments":[],"categories_sizes":[],"default_left":[0,0,0,0,0,0,0,0,0,0,0,0,0,0,0,0,0,0,0,0,0,0,0,0,0,0,0,0,0,0,0],"id":46,"left_children":[1,3,5,7,9,11,13,15,17,19,21,23,25,27,29,-1,-1,-1,-1,-1,-1,-1,-1,-1,-1,-1,-1,-1,-1,-1,-1],"loss_changes":[3.5198528E5,7.76563E4,5.315947E4,3.426008E4,3.670338E4,3.1357906E4,1.4778781E4,1.9781117E4,1.2632453E4,1.4521125E4,1.2592156E4,1.7963316E4,7.2611797E3,9.775008E3,6.9637266E3,0E0,0E0,0E0,0E0,0E0,0E0,0E0,0E0,0E0,0E0,0E0,0E0,0E0,0E0,0E0,0E0],"parents":[2147483647,0,0,1,1,2,2,3,3,4,4,5,5,6,6,7,7,8,8,9,9,10,10,11,11,12,12,13,13,14,14],"right_children":[2,4,6,8,10,12,14,16,18,20,22,24,26,28,30,-1,-1,-1,-1,-1,-1,-1,-1,-1,-1,-1,-1,-1,-1,-1,-1],"split_conditions":[6.9E1,4.7E1,1E0,1E0,1E0,9.1E1,9.5E1,3.3E1,1.5789342E0,1E0,1.7314572E0,1E0,8.05846E5,2.181451E0,3.92375E5,-1.1059097E0,-4.4397846E-1,-1.1719252E0,-3.0288818E0,-1.7850332E-1,-5.990242E-1,1.7656764E0,2.3124889E-1,4.2638388E-2,5.060657E-1,4.7601706E-1,9.323327E-1,1.0260425E0,4.8481256E-1,5.822388E-1,1.8750969E0],"split_indices":[4,4,5,6,5,4,4,4,2,6,2,8,0,2,0,0,0,0,0,0,0,0,0,0,0,0,0,0,0,0,0],"split_type":[0,0,0,0,0,0,0,0,0,0,0,0,0,0,0,0,0,0,0,0,0,0,0,0,0,0,0,0,0,0,0],"sum_hessian":[4E3,2.24E3,1.76E3,9.78E2,1.262E3,1.289E3,4.71E2,7.24E2,2.54E2,9.33E2,3.29E2,9.18E2,3.71E2,3.98E2,7.3E1,1.4E2,5.84E2,2.45E2,9E0,6.28E2,3.05E2,1.3E1,3.16E2,5.97E2,3.21E2,1.5E2,2.21E2,2.74E2,1.24E2,1.4E1,5.9E1],"tree_param":{"num_deleted":"0","num_feature":"9","num_nodes":"31","size_leaf_vector":"1"}},{"base_weights":[-1.9702353E-3,-7.093642E0,1.1275855E1,-1.3102344E1,-1.2336837E0,1.4224405E1,1.8737719E0,-1.6452785E1,-3.5804214E0,1.5686651E0,-1.0144399E1,1.2563153E1,2.7847164E1,2.1960789E1,2.2855264E-1,-1.4117345E0,-7.2631395E-1,-6.1675914E-2,-8.8693684E-1,7.946305E-1,-2.2623704E-3,8.952021E-1,-6.445662E-1,4.682903E-1,9.1467017E-1,1.5800714E0,1.0504955E0,1.6972007E0,6.708832E-1,-6.087523E-1,2.3779719E-1],"categories":[],"categories_nodes":[],"categories_segments":[],"categories_sizes":[],"default_left":[0,0,0,0,0,0,0,0,0,0,0,0,0,0,0,0,0,0,0,0,0,0,0,0,0,0,0,0,0,0,0],"id":47,"left_children":[1,3,5,7,9,11,13,15,17,19,21,23,25,27,29,-1,-1,-1,-1,-1,-1,-1,-1,-1,-1,-1,-1,-1,-1,-1,-1],"loss_changes":[3.2007456E5,8.6496625E4,4.2804625E4,3.8639016E4,3.1104727E4,2.6264031E4,1.2222573E4,1.9949875E4,1.0511457E4,2.1916201E4,2.3190797E4,1.9066344E4,2.596E3,2.4110273E3,1.931939E4,0E0,0E0,0E0,0E0,0E0,0E0,0E0,0E0,0E0,0E0,0E0,0E0,0E0,0E0,0E0,0E0],"parents":[2147483647,0,0,1,1,2,2,3,3,4,4,5,5,6,6,7,7,8,8,9,9,10,10,11,11,12,12,13,13,14,14],"right_children":[2,4,6,8,10,12,14,16,18,20,22,24,26,28,30,-1,-1,-1,-1,-1,-1,-1,-1,-1,-1,-1,-1,-1,-1,-1,-1],"split_conditions":[7.3E1,5.1E1,1E0,1E0,1E0,9.7E1,1.7625344E0,3.3E1,1.7942419E0,1.7144628E0,1.5521013E0,1E0,1E0,8.68809E5,8.1E1,-1.4117345E0,-7.2631395E-1,-6.1675914E-2,-8.8693684E-1,7.946305E-1,-2.2623704E-3,8.952021E-1,-6.445662E-1,4.682903E-1,9.1467017E-1,1.5800714E0,1.0504955E0,1.6972007E0,6.708832E-1,-6.087523E-1,2.3779719E-1],"split_indices":[4,4,6,5,6,4,2,4,2,2,2,5,7,0,4,0,0,0,0,0,0,0,0,0,0,0,0,0,0,0,0],"split_type":[0,0,0,0,0,0,0,0,0,0,0,0,0,0,0,0,0,0,0,0,0,0,0,0,0,0,0,0,0,0,0],"sum_hessian":[4E3,2.456E3,1.544E3,1.212E3,1.244E3,1.175E3,3.69E2,8.96E2,3.16E2,9.47E2,2.97E2,1.049E3,1.26E2,2.7E1,3.42E2,1.24E2,7.72E2,2.72E2,4.4E1,9.5E1,8.52E2,2.6E1,2.71E2,6.75E2,3.74E2,7.9E1,4.7E1,1E1,1.7E1,9.1E1,2.51E2],"tree_param":{"num_deleted":"0","num_feature":"9","num_nodes":"31","size_leaf_vector":"1"}},{"base_weights":[-8.7765115E-4,-1.0560623E1,6.9022293E0,-1.355407E1,-1.9139056E0,1.5968901E0,1.2430075E1,-2.3424786E1,-1.1369272E1,-2.0042967E1,-3.177011E-1,4.114721E0,-7.054289E0,9.2516165E0,2.074159E1,-1.0839132E0,-2.4246235E0,-7.189781E-1,-2.5459933E-1,9.685878E-1,-1.3886579E0,-4.457228E-1,1.3724379E-1,1.0758431E0,1.5562437E-1,-1.7694141E-1,-1.2628022E0,3.152506E-1,7.743103E-1,1.5483824E0,8.814084E-1],"categories":[],"categories_nodes":[],"categories_segments":[],"categories_sizes":[],"default_left":[0,0,0,0,0,0,0,0,0,0,0,0,0,0,0,0,0,0,0,0,0,0,0,0,0,0,0,0,0,0,0],"id":48,"left_children":[1,3,5,7,9,11,13,15,17,19,21,23,25,27,29,-1,-1,-1,-1,-1,-1,-1,-1,-1,-1,-1,-1,-1,-1,-1,-1],"loss_changes":[2.91726E5,4.0921734E4,7.0951734E4,2.5073172E4,1.1800208E4,2.6951834E4,3.1113203E4,8.230398E3,1.814296E4,1.0592566E4,9.923881E3,1.6641518E4,1.7763152E4,1.568293E4,9.865141E3,0E0,0E0,0E0,0E0,0E0,0E0,0E0,0E0,0E0,0E0,0E0,0E0,0E0,0E0,0E0,0E0],"parents":[2147483647,0,0,1,1,2,2,3,3,4,4,5,5,6,6,7,7,8,8,9,9,10,10,11,11,12,12,13,13,14,14],"right_children":[2,4,6,8,10,12,14,16,18,20,22,24,26,28,30,-1,-1,-1,-1,-1,-1,-1,-1,-1,-1,-1,-1,-1,-1,-1,-1],"split_conditions":[5.8E1,1E0,7.9E1,3.5E1,3.2E1,1E0,1E0,1.600362E0,1E0,1.5575857E0,4.91239E5,1.7468983E0,1.8163786E0,1E0,2.1292818E0,-1.0839132E0,-2.4246235E0,-7.189781E-1,-2.5459933E-1,9.685878E-1,-1.3886579E0,-4.457228E-1,1.3724379E-1,1.0758431E0,1.5562437E-1,-1.7694141E-1,-1.2628022E0,3.152506E-1,7.743103E-1,1.5483824E0,8.814084E-1],"split_indices":[4,5,4,4,4,6,5,2,8,2,0,2,2,8,2,0,0,0,0,0,0,0,0,0,0,0,0,0,0,0,0],"split_type":[0,0,0,0,0,0,0,0,0,0,0,0,0,0,0,0,0,0,0,0,0,0,0,0,0,0,0,0,0,0,0],"sum_hessian":[4E3,1.581E3,2.419E3,1.174E3,4.07E2,1.235E3,1.184E3,2.11E2,9.63E2,3.2E1,3.75E2,9.57E2,2.78E2,8.58E2,3.26E2,1.99E2,1.2E1,6.5E2,3.13E2,5E0,2.7E1,9.8E1,2.77E2,5.1E1,9.06E2,2.34E2,4.4E1,5.84E2,2.74E2,7.4E1,2.52E2],"tree_param":{"num_deleted":"0","num_feature":"9","num_nodes":"31","size_leaf_vector":"1"}},{"base_weights":[-1.3047523E-3,-8.613622E0,7.690302E0,-5.643633E0,-1.7169756E1,4.683771E0,1.602506E1,-1.2387378E1,-2.20043E0,-2.8319494E1,-1.3832546E1,1.9060631E0,1.2410759E1,1.2792006E1,2.4098412E1,-9.559447E-1,-4.7542712E-1,-2.4127667E-1,1.519985E-1,-9.581674E-1,-1.7252206E0,-5.862092E-1,-1.6709594E0,-4.816502E-2,3.5163847E-1,7.1240175E-1,3.751716E-2,5.064287E-1,9.5966417E-1,1.9279718E0,1.0556351E0],"categories":[],"categories_nodes":[],"categories_segments":[],"categories_sizes":[],"default_left":[0,0,0,0,0,0,0,0,0,0,0,0,0,0,0,0,0,0,0,0,0,0,0,0,0,0,0,0,0,0,0],"id":49,"left_children":[1,3,5,7,9,11,13,15,17,19,21,23,25,27,29,-1,-1,-1,-1,-1,-1,-1,-1,-1,-1,-1,-1,-1,-1,-1,-1],"loss_changes":[2.6510272E5,4.788022E4,5.289904E4,3.255052E4,1.769186E4,3.3351805E4,1.4308609E4,9.00382E3,1.28083E4,5.6247188E3,1.5135383E4,1.6850162E4,8.794328E3,6.659453E3,6.050961E3,0E0,0E0,0E0,0E0,0E0,0E0,0E0,0E0,0E0,0E0,0E0,0E0,0E0,0E0,0E0,0E0],"parents":[2147483647,0,0,1,1,2,2,3,3,4,4,5,5,6,6,7,7,8,8,9,9,10,10,11,11,12,12,13,13,14,14],"right_children":[2,4,6,8,10,12,14,16,18,20,22,24,26,28,30,-1,-1,-1,-1,-1,-1,-1,-1,-1,-1,-1,-1,-1,-1,-1,-1],"split_conditions":[6.3E1,1E0,9E1,4.1E1,3.8E1,1E0,1E0,3.3E1,1E0,7.82E2,1.6775509E0,1E0,2.1876607E0,9.7E1,2.1726213E0,-9.559447E-1,-4.7542712E-1,-2.4127667E-1,1.519985E-1,-9.581674E-1,-1.7252206E0,-5.862092E-1,-1.6709594E0,-4.816502E-2,3.5163847E-1,7.1240175E-1,3.751716E-2,5.064287E-1,9.5966417E-1,1.9279718E0,1.0556351E0],"split_indices":[4,6,4,4,4,5,5,4,5,1,2,8,2,4,2,0,0,0,0,0,0,0,0,0,0,0,0,0,0,0,0],"split_type":[0,0,0,0,0,0,0,0,0,0,0,0,0,0,0,0,0,0,0,0,0,0,0,0,0,0,0,0,0,0,0],"sum_hessian":[4E3,1.887E3,2.113E3,1.402E3,4.85E2,1.554E3,5.59E2,4.73E2,9.29E2,1.1E2,3.75E2,1.144E3,4.1E2,4.01E2,1.58E2,1.4E2,3.33E2,6.19E2,3.1E2,4.6E1,6.4E1,3.4E2,3.5E1,7.34E2,4.1E2,3.54E2,5.6E1,2.85E2,1.16E2,2.5E1,1.33E2],"tree_param":{"num_deleted":"0","num_feature":"9","num_nodes":"31","size_leaf_vector":"1"}},{"base_weights":[-1.4806346E-3,-6.1783767E0,9.821585E0,-1.0830649E1,-4.2931885E-1,1.2434678E1,1.4896407E0,-1.3464998E1,-3.2924461E0,-3.2707691E0,7.669322E0,1.0921237E1,2.4849468E1,1.3462244E1,-1.3488408E0,-1.2316874E0,-5.9334296E-1,1.3332374E0,-2.1217866E-1,-7.4048735E-2,-6.432681E-1,1.4583986E0,2.5649554E-1,1.6941074E0,5.1525784E-1,1.4104372E0,9.366488E-1,8.1771773E-1,-7.6581293E-1,-1.0496966E0,1.6728307E-1],"categories":[],"categories_nodes":[],"categories_segments":[],"categories_sizes":[],"default_left":[0,0,0,0,0,0,0,0,0,0,0,0,0,0,0,0,0,0,0,0,0,0,0,0,0,0,0,0,0,0,0],"id":50,"left_children":[1,3,5,7,9,11,13,15,17,19,21,23,25,27,29,-1,-1,-1,-1,-1,-1,-1,-1,-1,-1,-1,-1,-1,-1,-1,-1],"loss_changes":[2.4282556E5,6.571072E4,3.3619453E4,2.6923188E4,2.533816E4,2.1824516E4,1.2592243E4,1.7664E4,1.0171221E4,1.3976411E4,1.546423E4,1.4503891E4,2.081039E3,6.1598633E3,2.7737414E4,0E0,0E0,0E0,0E0,0E0,0E0,0E0,0E0,0E0,0E0,0E0,0E0,0E0,0E0,0E0,0E0],"parents":[2147483647,0,0,1,1,2,2,3,3,4,4,5,5,6,6,7,7,8,8,9,9,10,10,11,11,12,12,13,13,14,14],"right_children":[2,4,6,8,10,12,14,16,18,20,22,24,26,28,30,-1,-1,-1,-1,-1,-1,-1,-1,-1,-1,-1,-1,-1,-1,-1,-1],"split_conditions":[7.3E1,5.4E1,1E0,1E0,1E0,9.7E1,1.8163786E0,3.3E1,1.5556226E0,1.8785951E0,1.8269914E0,1.8625095E0,1E0,1.391E3,8.1E1,-1.2316874E0,-5.9334296E-1,1.3332374E0,-2.1217866E-1,-7.4048735E-2,-6.432681E-1,1.4583986E0,2.5649554E-1,1.6941074E0,5.1525784E-1,1.4104372E0,9.366488E-1,8.1771773E-1,-7.6581293E-1,-1.0496966E0,1.6728307E-1],"split_indices":[4,4,6,5,5,4,2,4,2,2,2,2,7,1,4,0,0,0,0,0,0,0,0,0,0,0,0,0,0,0,0],"split_type":[0,0,0,0,0,0,0,0,0,0,0,0,0,0,0,0,0,0,0,0,0,0,0,0,0,0,0,0,0,0,0],"sum_hessian":[4E3,2.456E3,1.544E3,1.357E3,1.099E3,1.175E3,3.69E2,1.005E3,3.52E2,8.14E2,2.85E2,1.049E3,1.26E2,7E1,2.99E2,1.24E2,8.81E2,1E1,3.42E2,6.87E2,1.27E2,2.9E1,2.56E2,2.6E1,1.023E3,7.9E1,4.7E1,6.4E1,6E0,5.7E1,2.42E2],"tree_param":{"num_deleted":"0","num_feature":"9","num_nodes":"31","size_leaf_vector":"1"}},{"base_weights":[-4.0350744E-4,-5.5212207E0,9.961828E0,-1.0289628E1,-2.0018795E-1,7.2058506E0,1.7402147E1,-7.6868954E0,-1.7706282E1,2.268115E0,-8.477104E0,9.779252E0,2.0160332E0,3.4247772E1,1.5830221E1,-8.040232E-1,-2.8828606E-1,-1.0933185E0,-4.7406122E-1,1.1695719E0,4.8906464E-2,1.1815138E-1,-7.547221E-1,1.1103145E0,4.0200686E-1,1.0916809E0,1.4046294E-4,2.026145E0,1.391074E0,2.0716026E-1,